tree
version=v4
num_class=1
num_tree_per_iteration=1
label_index=0
max_feature_idx=191
objective=binary sigmoid:1
feature_names=SK_ID_CURR CODE_GENDER FLAG_OWN_CAR FLAG_OWN_REALTY CNT_CHILDREN AMT_INCOME_TOTAL AMT_CREDIT AMT_ANNUITY AMT_GOODS_PRICE REGION_POPULATION_RELATIVE DAYS_BIRTH DAYS_REGISTRATION DAYS_ID_PUBLISH FLAG_MOBIL FLAG_EMP_PHONE FLAG_WORK_PHONE FLAG_CONT_MOBILE FLAG_PHONE FLAG_EMAIL CNT_FAM_MEMBERS REGION_RATING_CLIENT REGION_RATING_CLIENT_W_CITY HOUR_APPR_PROCESS_START REG_REGION_NOT_LIVE_REGION REG_REGION_NOT_WORK_REGION LIVE_REGION_NOT_WORK_REGION REG_CITY_NOT_LIVE_CITY REG_CITY_NOT_WORK_CITY LIVE_CITY_NOT_WORK_CITY EXT_SOURCE_2 OBS_30_CNT_SOCIAL_CIRCLE DEF_30_CNT_SOCIAL_CIRCLE OBS_60_CNT_SOCIAL_CIRCLE DEF_60_CNT_SOCIAL_CIRCLE DAYS_LAST_PHONE_CHANGE FLAG_DOCUMENT_2 FLAG_DOCUMENT_3 FLAG_DOCUMENT_4 FLAG_DOCUMENT_5 FLAG_DOCUMENT_6 FLAG_DOCUMENT_7 FLAG_DOCUMENT_8 FLAG_DOCUMENT_9 FLAG_DOCUMENT_10 FLAG_DOCUMENT_11 FLAG_DOCUMENT_12 FLAG_DOCUMENT_13 FLAG_DOCUMENT_14 FLAG_DOCUMENT_15 FLAG_DOCUMENT_16 FLAG_DOCUMENT_17 FLAG_DOCUMENT_18 FLAG_DOCUMENT_19 FLAG_DOCUMENT_20 FLAG_DOCUMENT_21 NAME_CONTRACT_TYPE_Cashloans NAME_CONTRACT_TYPE_Revolvingloans NAME_TYPE_SUITE_Children NAME_TYPE_SUITE_Family NAME_TYPE_SUITE_Groupofpeople NAME_TYPE_SUITE_Other_A NAME_TYPE_SUITE_Other_B NAME_TYPE_SUITE_Spousepartner NAME_TYPE_SUITE_Unaccompanied NAME_INCOME_TYPE_Businessman NAME_INCOME_TYPE_Commercialassociate NAME_INCOME_TYPE_Maternityleave NAME_INCOME_TYPE_Pensioner NAME_INCOME_TYPE_Stateservant NAME_INCOME_TYPE_Student NAME_INCOME_TYPE_Unemployed NAME_INCOME_TYPE_Working NAME_EDUCATION_TYPE_Academicdegree NAME_EDUCATION_TYPE_Highereducation NAME_EDUCATION_TYPE_Incompletehigher NAME_EDUCATION_TYPE_Lowersecondary NAME_EDUCATION_TYPE_Secondarysecondaryspecial NAME_FAMILY_STATUS_Civilmarriage NAME_FAMILY_STATUS_Married NAME_FAMILY_STATUS_Separated NAME_FAMILY_STATUS_Singlenotmarried NAME_FAMILY_STATUS_Unknown NAME_FAMILY_STATUS_Widow NAME_HOUSING_TYPE_Coopapartment NAME_HOUSING_TYPE_Houseapartment NAME_HOUSING_TYPE_Municipalapartment NAME_HOUSING_TYPE_Officeapartment NAME_HOUSING_TYPE_Rentedapartment NAME_HOUSING_TYPE_Withparents OCCUPATION_TYPE_Accountants OCCUPATION_TYPE_Cleaningstaff OCCUPATION_TYPE_Cookingstaff OCCUPATION_TYPE_Corestaff OCCUPATION_TYPE_Drivers OCCUPATION_TYPE_HRstaff OCCUPATION_TYPE_Highskilltechstaff OCCUPATION_TYPE_ITstaff OCCUPATION_TYPE_Laborers OCCUPATION_TYPE_LowskillLaborers OCCUPATION_TYPE_Managers OCCUPATION_TYPE_Medicinestaff OCCUPATION_TYPE_Privateservicestaff OCCUPATION_TYPE_Realtyagents OCCUPATION_TYPE_Salesstaff OCCUPATION_TYPE_Secretaries OCCUPATION_TYPE_Securitystaff OCCUPATION_TYPE_Waitersbarmenstaff WEEKDAY_APPR_PROCESS_START_FRIDAY WEEKDAY_APPR_PROCESS_START_MONDAY WEEKDAY_APPR_PROCESS_START_SATURDAY WEEKDAY_APPR_PROCESS_START_SUNDAY WEEKDAY_APPR_PROCESS_START_THURSDAY WEEKDAY_APPR_PROCESS_START_TUESDAY WEEKDAY_APPR_PROCESS_START_WEDNESDAY ORGANIZATION_TYPE_Advertising ORGANIZATION_TYPE_Agriculture ORGANIZATION_TYPE_Bank ORGANIZATION_TYPE_BusinessEntityType1 ORGANIZATION_TYPE_BusinessEntityType2 ORGANIZATION_TYPE_BusinessEntityType3 ORGANIZATION_TYPE_Cleaning ORGANIZATION_TYPE_Construction ORGANIZATION_TYPE_Culture ORGANIZATION_TYPE_Electricity ORGANIZATION_TYPE_Emergency ORGANIZATION_TYPE_Government ORGANIZATION_TYPE_Hotel ORGANIZATION_TYPE_Housing ORGANIZATION_TYPE_Industrytype1 ORGANIZATION_TYPE_Industrytype10 ORGANIZATION_TYPE_Industrytype11 ORGANIZATION_TYPE_Industrytype12 ORGANIZATION_TYPE_Industrytype13 ORGANIZATION_TYPE_Industrytype2 ORGANIZATION_TYPE_Industrytype3 ORGANIZATION_TYPE_Industrytype4 ORGANIZATION_TYPE_Industrytype5 ORGANIZATION_TYPE_Industrytype6 ORGANIZATION_TYPE_Industrytype7 ORGANIZATION_TYPE_Industrytype8 ORGANIZATION_TYPE_Industrytype9 ORGANIZATION_TYPE_Insurance ORGANIZATION_TYPE_Kindergarten ORGANIZATION_TYPE_LegalServices ORGANIZATION_TYPE_Medicine ORGANIZATION_TYPE_Military ORGANIZATION_TYPE_Mobile ORGANIZATION_TYPE_Other ORGANIZATION_TYPE_Police ORGANIZATION_TYPE_Postal ORGANIZATION_TYPE_Realtor ORGANIZATION_TYPE_Religion ORGANIZATION_TYPE_Restaurant ORGANIZATION_TYPE_School ORGANIZATION_TYPE_Security ORGANIZATION_TYPE_SecurityMinistries ORGANIZATION_TYPE_Selfemployed ORGANIZATION_TYPE_Services ORGANIZATION_TYPE_Telecom ORGANIZATION_TYPE_Tradetype1 ORGANIZATION_TYPE_Tradetype2 ORGANIZATION_TYPE_Tradetype3 ORGANIZATION_TYPE_Tradetype4 ORGANIZATION_TYPE_Tradetype5 ORGANIZATION_TYPE_Tradetype6 ORGANIZATION_TYPE_Tradetype7 ORGANIZATION_TYPE_Transporttype1 ORGANIZATION_TYPE_Transporttype2 ORGANIZATION_TYPE_Transporttype3 ORGANIZATION_TYPE_Transporttype4 ORGANIZATION_TYPE_University ORGANIZATION_TYPE_XNA FONDKAPREMONT_MODE_notspecified FONDKAPREMONT_MODE_orgspecaccount FONDKAPREMONT_MODE_regoperaccount FONDKAPREMONT_MODE_regoperspecaccount HOUSETYPE_MODE_blockofflats HOUSETYPE_MODE_specifichousing HOUSETYPE_MODE_terracedhouse WALLSMATERIAL_MODE_Block WALLSMATERIAL_MODE_Mixed WALLSMATERIAL_MODE_Monolithic WALLSMATERIAL_MODE_Others WALLSMATERIAL_MODE_Panel WALLSMATERIAL_MODE_Stonebrick WALLSMATERIAL_MODE_Wooden EMERGENCYSTATE_MODE_No EMERGENCYSTATE_MODE_Yes INCOME_CREDIT_PERC INCOME_PER_PERSON ANNUITY_INCOME_PERC PAYMENT_RATE
feature_infos=[100015:456253] [0:1] [0:1] [0:1] [0:19] [26100:13500000] [45000:4050000] [2187:225000] [40500:4050000] [0.00053300000000000005:0.072508000000000003] [-25196:-7489] [-24672:0] [-6383:0] none [0:1] [0:1] [0:1] [0:1] [0:1] [1:20] [1:3] [1:3] [0:23] [0:1] [0:1] [0:1] [0:1] [0:1] [0:1] [1.3159555812626235e-06:0.85499966640470115] [0:29] [0:8] [0:29] [0:6] [-4078:0] none [0:1] none [0:1] [0:1] none [0:1] [0:1] none [0:1] none [0:1] [0:1] [0:1] [0:1] none [0:1] [0:1] [0:1] none [0:1] [0:1] [0:1] [0:1] [0:1] [0:1] [0:1] [0:1] [0:1] none [0:1] none [0:1] [0:1] none none [0:1] [0:1] [0:1] [0:1] [0:1] [0:1] [0:1] [0:1] [0:1] [0:1] none [0:1] [0:1] [0:1] [0:1] [0:1] [0:1] [0:1] [0:1] [0:1] [0:1] [0:1] [0:1] [0:1] [0:1] [0:1] [0:1] [0:1] [0:1] [0:1] [0:1] [0:1] [0:1] [0:1] [0:1] [0:1] [0:1] [0:1] [0:1] [0:1] [0:1] [0:1] [0:1] [0:1] [0:1] [0:1] [0:1] [0:1] [0:1] [0:1] [0:1] [0:1] [0:1] [0:1] [0:1] [0:1] [0:1] [0:1] [0:1] [0:1] [0:1] none [0:1] [0:1] [0:1] [0:1] none [0:1] none [0:1] [0:1] [0:1] [0:1] [0:1] [0:1] [0:1] [0:1] [0:1] [0:1] [0:1] none [0:1] [0:1] [0:1] [0:1] [0:1] [0:1] [0:1] [0:1] [0:1] [0:1] none none [0:1] [0:1] [0:1] [0:1] [0:1] [0:1] [0:1] [0:1] [0:1] [0:1] [0:1] [0:1] [0:1] [0:1] [0:1] [0:1] [0:1] [0:1] [0:1] [0:1] [0:1] [0:1] [0:1] [0:1] [0.02031397276302532:10] [2812.5:6750000] [0.0060260255434614182:1.3933] [0.022075892857142856:0.12442776735459662]
tree_sizes=3491 3576 3568 3580 3577 3579 3582 3569 3570 3576 3571 3579 3584 3567 3564 3569 3569 3553 3569 3568 3572 3564 3571 3555 3551 3570 3576 3555 3571 3565 3552 3571 3585 3567 3563 3549 3582 3563 3584 3552 3558 3572 3558 3567 3568 3559 3574 3587 3565 3568 3560 3563 3562 3567 3554 3580 3560 3547 3558 3548 3541 3554 3567 3558 3557 3562 3578 3560 3582 3582 3562 3566 3555 3585 3552 3564 3546 3568 3571 3570 3558 3569 3562 3585 3574 3555 3553 3559 3558 3548 3551 3578 3543 3551 3563 3557 3559 3565 3562 3566

Tree=0
num_leaves=31
num_cat=0
split_feature=29 29 29 10 10 73 29 191 10 191 73 10 191 36 191 191 55 191 191 1 188 191 1 31 189 191 10 34 26 34
split_gain=4686.58 999.006 908.222 531.864 371.651 360.607 266.227 238.51 210.701 192.092 183.586 166.731 147.699 190.492 131.77 176.184 170.408 114.68 113.773 108.293 102.441 102.162 93.0383 111.291 92.2432 85.8594 83.08 80.4001 80.0729 79.6587
threshold=0.44260754072229885 0.6209161426047175 0.15848715761417079 -19776.499999999996 -19900.499999999996 1.0000000180025095e-35 0.70547741029099975 0.097415959661337176 -18049.499999999996 0.046592962638476322 1.0000000180025095e-35 -14218.499999999998 0.092539102990033234 1.0000000180025095e-35 0.093498269150146737 0.046332362307833275 1.0000000180025095e-35 0.066826562952243138 0.10600767721531344 1.0000000180025095e-35 0.55353074706468985 0.039653120420637213 1.0000000180025095e-35 0.57116562014542527 37227.375000000007 0.050013557483731028 -20858.499999999996 -469.49999999999994 1.0000000180025095e-35 -407.49999999999994
decision_type=2 2 2 2 2 2 2 2 2 2 2 2 2 2 2 2 2 2 2 2 2 2 2 2 2 2 2 2 2 2
left_child=2 4 8 19 28 9 7 11 -1 21 14 22 13 29 15 24 27 -13 -14 -4 -12 -6 -3 -24 -5 -18 -8 -17 -2 -11
right_child=1 6 3 10 5 -7 26 -9 -10 12 20 17 18 -15 -16 16 25 -19 -20 -21 -22 -23 23 -25 -26 -27 -28 -29 -30 -31
leaf_value=-0.22995866166526707 -0.24136765570497476 -0.23843017127666211 -0.23260432829465144 -0.23908565543706781 -0.23548689230805109 -0.23995393734714582 -0.24828499608219454 -0.24826664979616878 -0.22289384895329437 -0.23929591225682306 -0.23278627404327493 -0.23838351096011873 -0.24437114019094028 -0.23026107692014347 -0.23544718184181604 -0.2406616202699462 -0.22352127659972254 -0.23179663961787333 -0.23373874088463018 -0.23912891157790025 -0.24173018627120713 -0.241633638830863 -0.24337627665910902 -0.23606077410182985 -0.23091830136980768 -0.22770243823595276 -0.24343921919217298 -0.23037610399585892 -0.2296550645938924 -0.23215450920656633
leaf_weight=543.68353629112244 1402.9747595787048 883.70149886608124 347.90815013647079 158.29697614908218 1222.7331820130348 1288.0738378167152 430.75516980886459 339.77139323949814 1888.4681110978127 392.04391294717789 723.92510908842087 1255.0336576700211 171.36510717868805 2097.8047744631767 327.68953394889832 121.06513297557831 692.11776864528656 334.84001958370209 243.85624432563782 946.32989794015884 155.58472293615341 347.16844671964645 1550.9158610701561 240.15771722793579 1093.7778542041779 1691.2133196592331 1980.684755563736 204.15871572494507 60.902418792247772 259.63662791252136
leaf_count=1077 4202 2416 771 442 3023 3696 1555 1226 2555 1102 1616 3426 559 4212 809 355 975 718 565 2646 471 1048 4922 606 2260 3011 6297 412 119 565
internal_value=-0.235397 -0.238902 -0.229682 -0.231642 -0.236361 -0.235263 -0.241613 -0.240203 -0.224473 -0.233986 -0.230207 -0.239561 -0.232568 -0.231728 -0.229353 -0.228849 -0.227415 -0.236996 -0.238127 -0.237375 -0.234368 -0.236846 -0.241085 -0.242395 -0.231951 -0.226488 -0.244305 -0.234205 -0.24088 -0.236451
internal_weight=0 14502.4 8894.22 6462.07 7486.56 6022.68 7015.86 4604.42 2432.15 4734.61 5167.83 4264.65 3164.71 2749.49 4288.32 3960.63 2708.55 1589.87 415.221 1294.24 879.51 1569.9 2674.78 1791.07 1252.07 2383.33 2411.44 325.224 1463.88 651.681
internal_count=57657 40257 17400 13768 19091 14770 21166 13314 3632 11074 10351 12088 7003 5879 8264 7455 4753 4144 1124 3417 2087 4071 7944 5528 2702 3986 7852 767 4321 1667
is_linear=0
shrinkage=1


Tree=1
num_leaves=31
num_cat=0
split_feature=29 29 29 10 10 73 29 191 10 191 73 10 191 36 191 191 55 191 191 1 188 191 1 31 189 191 10 34 26 34
split_gain=4592.17 980.379 888.065 520.858 364.529 353.558 261.556 234.384 205.829 188.208 179.677 163.637 144.697 186.533 128.96 172.321 166.668 112.411 111.644 106.174 100.436 100.222 91.3597 109.281 90.3631 83.8853 81.7242 78.792 78.5328 78.0894
threshold=0.44260754072229885 0.6209161426047175 0.15848715761417079 -19776.499999999996 -19900.499999999996 1.0000000180025095e-35 0.70547741029099975 0.097415959661337176 -18049.499999999996 0.046592962638476322 1.0000000180025095e-35 -14218.499999999998 0.092539102990033234 1.0000000180025095e-35 0.093498269150146737 0.046332362307833275 1.0000000180025095e-35 0.066826562952243138 0.10600767721531344 1.0000000180025095e-35 0.55353074706468985 0.039653120420637213 1.0000000180025095e-35 0.57116562014542527 37227.375000000007 0.051050665748126112 -20858.499999999996 -469.49999999999994 1.0000000180025095e-35 -407.49999999999994
decision_type=2 2 2 2 2 2 2 2 2 2 2 2 2 2 2 2 2 2 2 2 2 2 2 2 2 2 2 2 2 2
left_child=2 4 8 19 28 9 7 11 -1 21 14 22 13 29 15 24 27 -13 -14 -4 -12 -6 -3 -24 -5 -18 -8 -17 -2 -11
right_child=1 6 3 10 5 -7 26 -9 -10 12 20 17 18 -15 -16 16 25 -19 -20 -21 -22 -23 23 -25 -26 -27 -28 -29 -30 -31
leaf_value=0.0053804230549023835 -0.0059152834865382076 -0.00300404386097984 0.0027637161397501054 -0.0036534933071833771 -8.9119328192592242e-05 -0.0045139373710110058 -0.012779143153971606 -0.012760923484426359 0.012360261962659574 -0.0038618357193921926 0.0025837035421479118 -0.0029578169937438427 -0.0088940941957761904 0.0050813983160675714 -4.9805812755028543e-05 -0.0052153668539409578 0.011693137248045507 0.0035627325560311108 0.001641232233943901 -0.0036963546968676033 -0.00627471930321458 -0.0061789928244650469 -0.0079071595066834231 -0.00065731232832301023 0.0044314706952094558 0.0075907530843120734 -0.0079695932923540321 0.0049676547154859623 0.0056805957827371235 0.0032087236599078312
leaf_weight=544.02610266208649 1401.9813990592957 883.38550785183907 348.02133180201054 158.2280540317297 1222.7203170955181 1287.3797950744629 430.08764669299126 339.2456289678812 1891.1635384708643 391.86340714991093 724.14536038041115 1254.5918773114681 171.18163585662842 2099.0538339614868 327.68762171268463 120.98965930938721 709.34526672959328 334.98021304607391 243.90345931053162 945.91300025582314 155.46778626739979 346.91154511272907 1549.4423609524965 240.13900971412659 1094.3465136885643 1676.4260061681271 1978.7878501415253 204.27757465839386 60.942907154560089 259.73461294174194
leaf_count=1077 4202 2416 771 442 3023 3696 1555 1226 2555 1102 1616 3426 559 4212 809 355 1001 718 565 2646 471 1048 4922 606 2260 2985 6297 412 119 565
internal_value=0 -0.0034714 0.00565413 0.00371542 -0.000954701 0.000132887 -0.00615863 -0.00476114 0.010801 0.00139619 0.0051353 -0.00412446 0.00279999 0.0036305 0.00597925 0.00647769 0.00789498 -0.0015837 -0.00270355 -0.00195883 0.00101802 -0.00143507 -0.00563541 -0.00693432 0.00341016 0.00881049 -0.0088283 0.00117988 -0.00543222 -0.00104343
internal_weight=0 14496.3 8900.04 6464.85 7485.67 6022.75 7010.66 4601.78 2435.19 4735.37 5170.91 4262.54 3165.74 2750.65 4291.3 3963.61 2711.04 1589.57 415.085 1293.93 879.613 1569.63 2672.97 1789.58 1252.57 2385.77 2408.88 325.267 1462.92 651.598
internal_count=57657 40257 17400 13768 19091 14770 21166 13314 3632 11074 10351 12088 7003 5879 8264 7455 4753 4144 1124 3417 2087 4071 7944 5528 2702 3986 7852 767 4321 1667
is_linear=0
shrinkage=0.01


Tree=2
num_leaves=31
num_cat=0
split_feature=29 29 29 10 10 73 29 191 10 191 73 10 191 36 191 191 55 191 191 1 188 191 1 31 189 191 10 34 26 8
split_gain=4499.8 962.125 868.481 510.099 357.548 346.648 256.986 230.359 201.122 184.405 175.863 160.605 141.759 182.66 126.219 168.562 163.026 110.188 109.558 104.098 98.47 98.3209 89.7167 107.312 88.5226 81.994 80.4085 77.2171 77.0232 76.6136
threshold=0.44260754072229885 0.6209161426047175 0.15848715761417079 -19776.499999999996 -19900.499999999996 1.0000000180025095e-35 0.70547741029099975 0.097415959661337176 -18049.499999999996 0.046592962638476322 1.0000000180025095e-35 -14218.499999999998 0.092539102990033234 1.0000000180025095e-35 0.093498269150146737 0.046332362307833275 1.0000000180025095e-35 0.066826562952243138 0.10600767721531344 1.0000000180025095e-35 0.55353074706468985 0.039653120420637213 1.0000000180025095e-35 0.57116562014542527 37227.375000000007 0.050013557483731028 -20858.499999999996 -469.49999999999994 1.0000000180025095e-35 1127250.0000000002
decision_type=2 2 2 2 2 2 2 2 2 2 2 2 2 2 2 2 2 2 2 2 2 2 2 2 2 2 2 2 2 2
left_child=2 4 8 19 28 9 7 11 -1 21 14 22 13 -11 15 24 27 -13 -14 -4 -12 -6 -3 -24 -5 -18 -8 -17 -2 -28
right_child=1 6 3 10 5 -7 26 -9 -10 12 20 17 18 -15 -16 16 25 -19 -20 -21 -22 -23 23 -25 -26 -27 29 -29 -30 -31
leaf_value=0.0053233610020618763 -0.0058603644231399942 -0.0029750757652555553 0.0027352048517984527 -0.0036185499490755503 -8.822902749504995e-05 -0.0044712427690644339 -0.012671948151316 -0.012653849042333029 0.012220263093850627 -0.0010331372026387334 0.0025571006964886312 -0.0029292784102055913 -0.0088149002481841977 0.0050276721518149681 -4.9307885940115209e-05 -0.0051664899998812254 0.011609090727810667 0.0035256591087183061 0.0016245087559568355 -0.0036610210529667625 -0.0062167458277840619 -0.0061218303562929777 -0.007835745372203223 -0.00065079078474406351 0.0043849320260528181 0.0075279630060152347 -0.0072352665261282093 0.0049151940893009411 0.0056201646344699709 -0.013748320472812785
leaf_weight=544.35737729072571 1400.9736678600311 883.06876480579376 348.13204990327358 158.15877087414265 1222.7075513154268 1286.6795770674944 429.39209140837193 338.69784340262413 1893.688182875514 651.51206743717194 724.36098106205463 1254.148979306221 170.99329453706741 2100.2634571641684 327.68569397926331 120.91331067681313 693.93639251589775 335.1169116795063 243.94987559318542 945.49383439123631 155.34899161756039 346.65066002309322 1547.9356861114502 240.1204514503479 1094.8988124132156 1694.154298260808 1775.7915167808533 204.3927344083786 60.982011243700981 201.05621910095215
leaf_count=1077 4202 2416 771 442 3023 3696 1555 1226 2555 1667 1616 3426 559 4212 809 355 975 718 565 2646 471 1048 4922 606 2260 3011 5552 412 119 745
internal_value=0 -0.0034382 0.00559411 0.00367675 -0.000945289 0.000131547 -0.00610171 -0.00471632 0.0106803 0.00138202 0.00508104 -0.00408529 0.00277112 0.00359271 0.00591551 0.00640829 0.00780919 -0.00156817 -0.00267745 -0.00193971 0.00100772 -0.00142097 -0.00558293 -0.00687087 0.00337475 0.00871387 -0.00874965 0.00116792 -0.00538148 -0.00789768
internal_weight=0 14490 8905.52 6467.48 7484.71 6022.76 7005.33 4599.09 2438.05 4736.08 5173.85 4260.39 3166.72 2751.78 4294.14 3966.45 2713.4 1589.27 414.943 1293.63 879.71 1569.36 2671.12 1788.06 1253.06 2388.09 2406.24 325.306 1461.96 1976.85
internal_count=57657 40257 17400 13768 19091 14770 21166 13314 3632 11074 10351 12088 7003 5879 8264 7455 4753 4144 1124 3417 2087 4071 7944 5528 2702 3986 7852 767 4321 6297
is_linear=0
shrinkage=0.01


Tree=3
num_leaves=31
num_cat=0
split_feature=29 29 29 10 10 73 29 10 191 73 191 10 191 36 191 191 55 191 1 1 191 31 191 188 189 87 191 10 8 11
split_gain=4409.42 944.41 849.449 499.58 348.412 333.489 256.633 196.571 190.113 172.141 165.278 158.787 157.177 171.004 123.545 164.905 159.478 122.324 102.082 102.062 101.028 100.881 96.7424 96.544 86.7209 80.9694 80.1509 79.1787 78.597 81.4433
threshold=0.44260754072229885 0.61948417953588508 0.15848715761417079 -19776.499999999996 -19900.499999999996 1.0000000180025095e-35 0.70547741029099975 -18049.499999999996 0.097415959661337176 1.0000000180025095e-35 0.046592962638476322 -14314.499999999998 0.092539102990033234 1.0000000180025095e-35 0.093498269150146737 0.046332362307833275 1.0000000180025095e-35 0.066826562952243138 1.0000000180025095e-35 1.0000000180025095e-35 0.10600767721531344 1.5000000000000002 0.039653120420637213 0.55353074706468985 37227.375000000007 1.0000000180025095e-35 0.051050665748126112 -21254.499999999996 1127250.0000000002 -4498.4999999999991
decision_type=2 2 2 2 2 2 2 2 2 2 2 2 2 2 2 2 2 2 2 2 2 2 2 2 2 2 2 2 2 2
left_child=2 4 7 19 -2 10 8 -1 11 14 22 18 13 -12 15 24 -17 25 -3 -4 -14 -20 -6 -11 -5 -13 -18 -8 29 -29
right_child=1 6 3 9 5 -7 27 -9 -10 23 12 17 20 -15 -16 16 26 -19 21 -21 -22 -23 -24 -25 -26 -27 -28 28 -30 -31
leaf_value=0.0052670119126936778 -0.0053138979436320576 -0.0028023998995314937 0.0027070053478294464 -0.0035839499776554712 5.7503315202989714e-05 -0.0043756442471038857 -0.012946948970629995 0.012082934166959589 -0.011724899369531354 0.0025307883986444156 -0.00090752302781292897 -0.00355388037780162 -0.0090649273505131658 0.0049799079250625071 -4.8815493522459803e-05 0.0011561072995865439 0.011432709615322832 0.0036598116983060803 -0.0073966944291466172 -0.0036260351160725089 0.0010981815876575153 0.0056742955341431804 -0.0059563075258384007 -0.0061593839227301319 0.0043389460036933137 0.0089875029288065365 0.007427118393219888 -0.0053609344014866559 -0.013748186979272208 -0.0096082884262207926
leaf_weight=544.67770707607269 1444.4854515045881 886.21197101473808 348.24037347733974 158.08915102481842 1212.8324948251247 1274.1577335894108 367.08047661185265 1896.0468090325594 351.43260276317596 724.57213239371777 646.99713864922523 1248.0304961949587 166.86818444728851 2077.4760122299194 327.68379282951355 325.34042629599571 711.08585952222347 345.11301000416279 1732.0596259683371 945.07258133590221 236.34751957654953 61.130063489079475 343.18777978420258 155.22840987145901 1095.4351226687431 53.693768322467804 1679.206820577383 1019.7720659375191 206.59052586555481 810.09079766273499
leaf_count=1077 4270 2414 771 442 2983 3656 1344 2555 1248 1616 1649 3483 551 4163 809 767 1001 734 5451 2646 558 120 1035 471 2260 90 2985 3028 769 2711
internal_value=0 -0.00340537 0.00553493 0.00363856 -0.000907836 0.000160414 -0.00601617 0.0105619 -0.00465155 0.00502749 0.00139441 -0.00407696 0.00271938 0.00358178 0.00585265 0.00633986 0.00772469 -0.00163327 -0.00557892 -0.00192079 -0.00310775 -0.0069511 -0.00126887 0.00099753 0.00333974 -0.00303657 0.00861874 -0.00867195 -0.00790137 -0.00724126
internal_weight=0 14483.6 8910.68 6469.95 7402.35 5957.87 7081.21 2440.72 4677.67 5176.64 4683.71 4326.24 3127.69 2724.47 4296.84 3969.16 2715.63 1646.84 2679.4 1293.31 403.216 1793.19 1556.02 879.801 1253.52 1301.72 2390.29 2403.53 2036.45 1829.86
internal_count=57657 40257 17400 13768 18865 14595 21392 3632 13540 10351 10939 12292 6921 5812 8264 7455 4753 4307 7985 3417 1109 5571 4018 2087 2702 3573 3986 7852 6508 5739
is_linear=0
shrinkage=0.01


Tree=4
num_leaves=31
num_cat=0
split_feature=29 29 29 10 10 73 29 10 191 73 191 10 191 36 191 191 55 191 1 1 191 31 191 188 189 87 191 10 26 55
split_gain=4320.96 926.869 830.95 489.292 341.74 326.971 252.189 192.169 186.87 168.507 161.94 155.854 153.997 167.461 120.935 161.344 156.029 119.906 100.256 100.067 99.1633 98.9839 94.9048 94.6566 84.9572 79.3354 78.3823 78.0349 77.4256 77.323
threshold=0.44260754072229885 0.61948417953588508 0.15848715761417079 -19776.499999999996 -19900.499999999996 1.0000000180025095e-35 0.70547741029099975 -18049.499999999996 0.097415959661337176 1.0000000180025095e-35 0.046592962638476322 -14314.499999999998 0.092539102990033234 1.0000000180025095e-35 0.093498269150146737 0.046332362307833275 1.0000000180025095e-35 0.066826562952243138 1.0000000180025095e-35 1.0000000180025095e-35 0.10600767721531344 1.5000000000000002 0.039653120420637213 0.55353074706468985 37227.375000000007 1.0000000180025095e-35 0.050013557483731028 -20858.499999999996 1.0000000180025095e-35 1.0000000180025095e-35
decision_type=2 2 2 2 2 2 2 2 2 2 2 2 2 2 2 2 2 2 2 2 2 2 2 2 2 2 2 2 2 2
left_child=2 4 7 19 28 10 8 -1 11 14 22 18 13 -12 15 24 -17 25 -3 -4 -14 -20 -6 -11 -5 29 -18 -8 -2 -13
right_child=1 6 3 9 5 -7 27 -9 -10 23 12 17 20 -15 -16 16 26 -19 21 -21 -22 -23 -24 -25 -26 -27 -28 -29 -30 -31
leaf_value=0.0052113643785974507 -0.0057486643417496491 -0.0027753314610198406 0.0026791169542873068 -0.0035496889049531771 5.6928296827312601e-05 -0.0043342676848162794 -0.01246617839439391 0.011948188972636609 -0.011626579953064039 0.0025047626047702254 -0.00089854576492939353 -0.0098114663304466904 -0.0089851196719434728 0.0049274345470815923 -4.8326742345284918e-05 0.0011443929267756824 0.011352260996441644 0.0036217333348301075 -0.0073297757115343533 -0.0035913901877131045 0.0010870621249955527 0.0056138048304037727 -0.0059012558806798019 -0.0061026212526449934 0.0042935054244286376 0.008888036256410544 0.0073662025358225882 -0.0077555237755608823 0.0058096670277813511 -0.0025347076167610482
leaf_weight=544.98730444908142 1383.0245899856091 885.90844771265984 348.34634219110012 158.01923100650311 1212.84060575068 1273.461532920599 427.9460027217865 1898.2437538951635 350.86329466104507 724.77879665791988 646.92730623483658 168.892673432827 166.66784834861755 2078.5977551937103 327.68192934989929 325.38372474908829 695.53430941700935 345.25337786972523 1730.4023667573929 944.64942544698715 236.37722736597061 61.170676842331886 342.92673379182816 155.10613012313843 1095.9558463692665 53.751424223184586 1696.8459074944258 1972.8114286214113 60.490298494696617 1078.5949532240629
leaf_count=1077 4153 2414 771 442 2983 3656 1555 2555 1248 1616 1649 566 551 4163 809 767 975 734 5451 2646 558 120 1035 471 2260 90 3011 6297 117 2917
internal_value=0 -0.00337289 0.00547657 0.00360085 -0.000898895 0.000158802 -0.00596077 0.0104455 -0.00460785 0.00497463 0.00138027 -0.00403832 0.00269142 0.00354459 0.00579062 0.00627235 0.00764142 -0.00161728 -0.00552712 -0.00190205 -0.003078 -0.00688784 -0.00125639 0.000987453 0.00330515 -0.00300734 0.00852507 -0.00859522 -0.00526431 -0.00351988
internal_weight=0 14476.9 8915.53 6472.3 7401.31 5957.8 7075.59 2443.23 4674.84 5179.31 4684.34 4323.97 3128.57 2725.53 4299.42 3971.74 2717.76 1646.49 2677.48 1293 403.045 1791.57 1555.77 879.885 1253.98 1301.24 2392.38 2400.76 1443.51 1247.49
internal_count=57657 40257 17400 13768 18865 14595 21392 3632 13540 10351 10939 12292 6921 5812 8264 7455 4753 4307 7985 3417 1109 5571 4018 2087 2702 3573 3986 7852 4270 3483
is_linear=0
shrinkage=0.01


Tree=5
num_leaves=31
num_cat=0
split_feature=29 29 29 10 10 73 29 191 10 191 73 10 191 36 191 191 55 55 191 191 1 191 188 33 1 189 6 15 73 10
split_gain=4234.4 909.759 812.962 479.232 337.544 326.987 243.798 219.64 187.911 173.871 164.96 151.959 132.743 171.745 118.387 157.876 152.67 104.319 135.364 103.776 98.1107 92.8465 92.807 85.0867 95.9524 83.2305 82.5426 80.3228 77.065 76.8536
threshold=0.44260754072229885 0.6209161426047175 0.15848715761417079 -19776.499999999996 -19900.499999999996 1.0000000180025095e-35 0.70547741029099975 0.097415959661337176 -18049.499999999996 0.046592962638476322 1.0000000180025095e-35 -14218.499999999998 0.092539102990033234 1.0000000180025095e-35 0.093498269150146737 0.046332362307833275 1.0000000180025095e-35 1.0000000180025095e-35 0.046621881188118823 0.10600767721531344 1.0000000180025095e-35 0.039653120420637213 0.55353074706468985 0.54956072216492835 1.0000000180025095e-35 37227.375000000007 382630.50000000006 1.0000000180025095e-35 1.0000000180025095e-35 -21254.499999999996
decision_type=2 2 2 2 2 2 2 2 2 2 2 2 2 2 2 2 2 2 2 2 2 2 2 2 2 2 2 2 2 2
left_child=2 4 8 20 -2 9 7 11 -1 21 14 23 13 -11 15 25 -17 -13 -19 -14 -4 -6 -12 24 -3 -5 27 -20 -28 -8
right_child=1 6 3 10 5 -7 29 -9 -10 12 22 17 19 -15 -16 16 -18 18 26 -21 -22 -23 -24 -25 -26 -27 28 -29 -30 -31
leaf_value=0.0051564053593324615 -0.0052328454723224987 -0.0031931141568365914 0.0026515321445279108 -0.0035157622227667664 -8.7649950628398889e-05 -0.004346850859487719 -0.012739238375292061 -0.012356187388167317 0.011815945887779318 -0.0010044320698768456 0.0024790194746216404 -0.0088654681438519196 -0.0085763577629690158 0.004872151549192621 -4.7843529887751769e-05 0.0011327996243572136 0.0084328120436337056 -0.0044494534300323612 -0.0060839565910585716 0.0015938562008757373 -0.0035570847023299774 -0.0059561203086080103 -0.0060464500149006312 0.00011371277487838669 -0.0074180585939300292 0.0042486019479021442 0.0066801145035372015 0.0046557233348122704 -0.0014232115437983128 -0.0077598703684081073
leaf_weight=545.2864351272583 1458.9881129413843 807.8129249215126 348.45002508163452 157.94901703298092 1222.6989576518536 1284.5657277703285 365.75590096414089 337.0116730183363 1900.2834493964911 651.28684058785439 724.98121769726276 172.40341919660568 170.3830933868885 2103.6268542408943 327.68006587028503 325.42637938261032 2394.3563815951347 559.96643128991127 197.56021662056446 244.03300315141678 944.22443945705891 345.85676184296608 154.98222044110298 250.92800268530846 1606.67443972826 1096.4612669348717 381.237219363451 107.55119566619396 169.56213149428368 2032.1683024615049
leaf_count=1077 4321 2234 771 442 3023 3696 1344 1226 2555 1667 1616 565 559 4212 809 767 3986 1611 593 565 2646 1048 471 619 5091 2260 715 220 440 6508
internal_value=0 -0.00334076 0.00541901 0.00356361 -0.000917324 0.000128146 -0.00593508 -0.0045852 0.0103311 0.00134144 0.00492246 -0.00396952 0.00268912 0.00348287 0.00572942 0.00620577 0.00755935 -0.00152103 -0.000626734 -0.00258753 -0.00188351 -0.00138161 0.000977484 -0.00542854 -0.00600452 0.00327095 0.00187422 -0.00229824 0.00418553 -0.00851937
internal_weight=0 14470.1 8920.08 6474.51 7481.44 6022.45 6988.63 4590.71 2445.57 4737.89 5181.84 4253.7 3169.33 2754.91 4301.87 3974.19 2719.78 1588.28 1415.88 414.416 1292.67 1568.56 879.963 2665.42 2414.49 1254.41 855.911 305.111 550.799 2397.92
internal_count=57657 40257 17400 13768 19091 14770 21166 13314 3632 11074 10351 12088 7003 5879 8264 7455 4753 4144 3579 1124 3417 4071 2087 7944 7325 2702 1968 813 1155 7852
is_linear=0
shrinkage=0.01


Tree=6
num_leaves=31
num_cat=0
split_feature=29 29 29 10 10 73 29 10 191 73 191 10 191 36 191 191 191 55 1 31 1 191 191 188 189 87 191 26 10 34
split_gain=4149.67 893.022 795.471 469.391 328.805 314.291 243.518 183.788 180.382 161.495 155.337 150.233 148.051 160.542 116.473 115.899 154.495 149.395 96.8778 96.4487 96.193 95.5064 91.3491 90.9943 81.5717 77.4128 76.6277 75.9889 75.7657 75.6449
threshold=0.44260754072229885 0.61948417953588508 0.15848715761417079 -19776.499999999996 -19900.499999999996 1.0000000180025095e-35 0.70547741029099975 -18049.499999999996 0.097415959661337176 1.0000000180025095e-35 0.046592962638476322 -14314.499999999998 0.092539102990033234 1.0000000180025095e-35 0.066826562952243138 0.093498269150146737 0.046332362307833275 1.0000000180025095e-35 1.0000000180025095e-35 0.57116562014542527 1.0000000180025095e-35 0.10600767721531344 0.039653120420637213 0.55353074706468985 33975.000000000007 1.0000000180025095e-35 0.051050665748126112 1.0000000180025095e-35 -20858.499999999996 -469.49999999999994
decision_type=2 2 2 2 2 2 2 2 2 2 2 2 2 2 2 2 2 2 2 2 2 2 2 2 2 2 2 2 2 2
left_child=2 4 7 20 27 10 8 -1 11 15 22 18 13 -12 25 16 24 29 -3 -20 -4 -14 -6 -11 -5 -13 -19 -2 -8 -18
right_child=1 6 3 9 5 -7 28 -9 -10 23 12 14 21 -15 -16 -17 17 26 19 -21 -22 -23 -24 -25 -26 -27 -28 -29 -30 -31
leaf_value=0.0051021243261681597 -0.0056470591324495794 -0.0027207954496739949 0.0026242487682182113 -0.0038756137199558089 5.7236305970711575e-05 -0.0042522315475986136 -0.012266119604923449 0.01168612363807927 -0.01143070460543528 0.0024535556387731998 -0.00087971817457700556 -0.003464040507938442 -0.0088312568218302107 0.0048244333392635039 0.0035756056559999934 -4.7365852401687969e-05 -0.0051502556995307392 0.011089135427406896 -0.0076773239583911969 -0.00085012890597646162 -0.0035231136131791589 0.0010599265699825135 -0.0057918414129667743 -0.0059908591900421238 0.0041510855918563344 0.0087866408224756953 0.0071778664772931388 0.0058035263523125383 -0.0076166614615242132 0.0048272279185950333
leaf_weight=545.5753927230835 1381.0332119464874 885.28595606982708 348.55144274234772 142.87762509286404 1212.8362919390202 1272.0459237396717 426.39706762135029 1902.1703274697065 349.64636121690273 725.1793384552002 646.78009195625782 1246.5635295212269 166.26134027540684 2080.7325015068054 345.4177163541317 327.67822897434235 120.8875849545002 713.12826198339462 1549.4896712601185 238.8169414550066 943.79780603945255 236.44917494058609 342.38988697528839 154.85675171017647 1111.9527073204517 53.807800784707069 1683.1172334849834 60.494179517030716 1968.6338119208813 204.58082044124603
leaf_count=1077 4153 2414 771 405 2983 3656 1555 2555 1248 1616 1649 3483 551 4163 734 809 355 1001 4961 610 2646 558 1035 471 2297 90 2985 117 6297 412
internal_value=0 -0.00330897 0.00536222 0.00352681 -0.00088102 0.00015594 -0.00585206 0.0102186 -0.00452227 0.00487094 0.00135271 -0.00396305 0.00263614 0.0034718 -0.00158604 0.00566901 0.00614005 0.00747842 -0.00542627 -0.0067656 -0.00186515 -0.00302371 -0.00123046 0.000967623 0.00323715 -0.00295712 0.00834187 -0.00516653 -0.00844442 0.00112133
internal_weight=0 14463.1 8924.35 6476.61 7399.02 5957.5 7064.06 2447.75 4669.03 5184.26 4685.45 4319.38 3130.22 2727.51 1645.79 4304.22 3976.54 2721.71 2673.59 1788.31 1292.35 402.711 1555.23 880.036 1254.83 1300.37 2396.25 1441.53 2395.03 325.468
internal_count=57657 40257 17400 13768 18865 14595 21392 3632 13540 10351 10939 12292 6921 5812 4307 8264 7455 4753 7985 5571 3417 1109 4018 2087 2702 3573 3986 4270 7852 767
is_linear=0
shrinkage=0.01


Tree=7
num_leaves=31
num_cat=0
split_feature=29 29 29 10 10 73 191 29 10 191 73 10 8 8 191 191 55 55 191 1 191 188 12 30 68 78 8 6 189 15
split_gain=4066.74 876.519 778.449 459.769 324.815 314.471 236.049 244.808 179.796 167.13 158.115 146.453 129.792 129.599 113.488 152.04 146.896 102.063 131.534 94.3131 89.3719 89.2178 86.7525 82.7102 115.229 81.8201 81.4455 81.2048 79.974 78.73
threshold=0.44260754072229885 0.6209161426047175 0.15848715761417079 -19776.499999999996 -19900.499999999996 1.0000000180025095e-35 0.097415959661337176 0.70547741029099975 -18049.499999999996 0.046592962638476322 1.0000000180025095e-35 -14218.499999999998 362250.00000000006 451660.50000000006 0.092539102990033234 0.046332362307833275 1.0000000180025095e-35 1.0000000180025095e-35 0.046621881188118823 1.0000000180025095e-35 0.039653120420637213 0.55353074706468985 -2954.4999999999995 8.5000000000000018 1.0000000180025095e-35 1.0000000180025095e-35 1127250.0000000002 382630.50000000006 37227.375000000007 1.0000000180025095e-35
decision_type=2 2 2 2 2 2 2 2 2 2 2 2 2 2 2 2 2 2 2 2 2 2 2 2 2 2 2 2 2 2
left_child=2 4 8 19 -2 9 7 11 -1 20 14 23 22 -14 15 28 -17 -13 -19 -4 -6 -12 25 24 -3 -11 -9 29 -5 -20
right_child=1 6 3 10 5 -7 -8 26 -10 12 21 17 13 -15 -16 16 -18 18 27 -21 -22 -23 -24 -25 -26 -27 -28 -29 -30 -31
leaf_value=0.0050485085703824359 -0.0051360839206311985 -0.0051210919609670823 0.0025972633941861397 -0.0034524319322241301 -8.6902731009841461e-05 -0.0042657532843448564 -0.012169664378338989 -0.0073407437134460282 0.011558647514810795 0.001746854996454222 0.0024283670377890651 -0.0087613889955939894 0.0078592189576238876 0.0018019009194330036 2.9982311958787123e-05 0.0011100035463279679 0.0082708028749086115 -0.0043773954307341776 -0.0060324635596091438 -0.0034894734963326884 -0.0058480800604795574 -0.0059358416937927219 0.002613865954314008 0.0049945357122586718 -0.014395735008847855 -0.0051413105539861682 -0.013558287500673252 0.0041494107916992245 0.0041609230223804347 0.0045994862920520109
leaf_weight=545.85437572002411 1456.9554923325777 2444.3254551589489 348.65064361691475 157.81516528129578 1222.6877696663141 1283.1286580711603 541.23631571233273 1950.4307613223791 1903.9083351492882 322.84960992634296 725.37334181368351 172.13758006691933 720.9443723410368 692.49280923604965 336.10626375675201 325.49656102061272 2389.5812094956636 559.42532262206078 197.42549142241478 943.36967234313488 345.30909080803394 154.72980153560638 1064.4348488301039 75.417884886264801 141.7251913100481 370.16440434753895 236.19663064181805 551.00589264929295 1097.4218384623528 107.61338984966278
leaf_count=1077 4321 7251 771 442 3023 3696 1970 6221 2555 739 1616 565 1252 1578 827 767 3968 1611 593 2646 1048 471 2359 155 538 1075 887 1155 2260 220
internal_value=0 -0.00327753 0.00530623 0.00349049 -0.000899217 0.000125844 -0.00582698 -0.00529357 0.0101081 0.00131494 0.00482011 -0.00389445 0.00263554 0.00489152 0.00560943 0.00608176 0.00741233 -0.00149069 -0.000606492 -0.00184697 -0.00135565 0.000957866 0.000821151 -0.00532833 -0.00562938 -0.00193237 -0.00801235 0.00185779 0.00320373 -0.00228166
internal_weight=0 14455.9 8928.31 6478.54 7478.97 6022.01 6976.94 6435.7 2449.76 4738.88 5186.52 4249.08 3170.89 1413.44 4306.42 3970.31 2715.08 1587.61 1415.47 1292.02 1568 880.103 1757.45 2661.47 2586.05 693.014 2186.63 856.045 1255.24 305.039
internal_count=57657 40257 17400 13768 19091 14770 21166 19196 3632 11074 10351 12088 7003 2830 8264 7437 4735 4144 3579 3417 4071 2087 4173 7944 7789 1814 7108 1968 2702 813
is_linear=0
shrinkage=0.01


Tree=8
num_leaves=31
num_cat=0
split_feature=29 29 29 10 10 73 29 191 10 191 191 55 10 191 191 55 191 191 191 1 191 1 31 191 34 29 11 87 10 8
split_gain=3985.55 860.507 761.931 473.926 316.374 302.11 235.203 174.242 155.836 149.007 144.863 151.469 144.817 140.349 143.603 209.687 126.151 115.311 113.078 106.065 96.4868 95.1068 95.4584 87.9305 85.4377 78.8231 78.682 75.676 74.7861 76.5807
threshold=0.44260754072229885 0.61948417953588508 0.15185310213095587 -19776.499999999996 -19900.499999999996 1.0000000180025095e-35 0.70547741029099975 0.097415959661337176 -18049.499999999996 0.046592962638476322 0.097415959661337176 1.0000000180025095e-35 -14314.499999999998 0.093498269150146737 0.046592962638476322 1.0000000180025095e-35 0.10600767721531344 0.050013557483731028 0.066826562952243138 1.0000000180025095e-35 0.10600767721531344 1.0000000180025095e-35 1.5000000000000002 0.039653120420637213 -1626.4999999999998 0.23348701432133467 -4957.4999999999991 1.0000000180025095e-35 -21254.499999999996 1127250.0000000002
decision_type=2 2 2 2 2 2 2 2 2 2 2 2 2 2 2 2 2 2 2 2 2 2 2 2 2 2 2 2 2 2
left_child=2 4 8 19 -2 9 7 12 -1 23 11 -11 21 14 24 -16 -12 -17 27 -4 -15 -3 -23 -6 -5 -26 -13 -14 -8 -30
right_child=1 6 3 13 5 -7 28 -9 -10 10 16 26 18 20 15 17 -18 -19 -20 -21 -22 22 -24 -25 25 -27 -28 -29 29 -31
leaf_value=0.0052433537304149951 -0.0050707124617622472 -0.0026457026836999272 0.0027816891196989347 -0.0022714649226654726 5.7532820069117733e-05 -0.0041717998919106594 -0.012471283076372401 -0.011241441920436164 0.01153582788448438 -0.0022925508452174919 -0.011220504130983473 0.0018775518522336917 -0.0034091923912351143 -0.0069411936791665694 3.8240466408558876e-05 0.010738859685962127 0.0010312116620498544 0.0062597443066694297 0.0035286536063486441 -0.0035659255024896898 0.0030482862956090991 -0.0070913859841422316 0.0056209097122362061 -0.0056846518004050033 0.0081156191288250992 0.0025245911916199162 0.0056905622737786358 0.0086984266800308515 -0.0068944377803230204 -0.013340256728747368
leaf_weight=502.03747773170471 1439.4997726231813 884.40569494664669 362.36983892321587 267.22554425895214 1212.8320766687393 1270.6127406060696 363.84793972969055 348.36669366061687 1821.6585981547832 404.0076429694891 130.36274045705795 840.1399559378624 1245.6249161809683 156.26500681042671 430.42171190679073 802.33615331351757 236.5236653983593 2026.3652933090925 345.57884365320206 962.25877064466476 253.61823929846287 1724.0653334856033 61.165525659918785 341.8407341837883 335.88181522488594 1011.5785916298628 1520.8069779723883 53.854576483368874 1820.155898809433 205.08362455666065
leaf_count=979 4270 2414 794 705 2983 3656 1344 1248 2426 1079 461 1900 3483 482 1057 1142 558 3741 734 2708 557 5451 120 1035 574 2235 2923 90 5739 769
internal_value=0 -0.00324638 0.00525096 0.00351904 -0.000863486 0.000153162 -0.00574568 -0.00443848 0.0101763 0.00132575 0.00258206 0.0033655 -0.00388922 0.00485992 0.00533256 0.00654077 -0.00332209 0.00753021 -0.00155538 -0.00182945 -0.00076013 -0.00532735 -0.00665584 -0.00120506 0.00289389 0.00391827 0.00433371 -0.00290741 -0.00829709 -0.00754717
internal_weight=0 14448.8 8932.02 6608.32 7396.63 5957.13 7052.15 4663.06 2323.7 4686.51 3131.84 2764.95 4314.69 5283.69 4873.81 3259.12 366.886 2828.7 1645.06 1324.63 409.883 2669.64 1785.23 1554.67 1614.69 1347.46 2360.95 1299.48 2389.09 2025.24
internal_count=57657 40257 17400 13995 18865 14595 21392 13540 3405 10939 6921 5902 12292 10493 9454 5940 1019 4883 4307 3502 1039 7985 5571 4018 3514 2809 4823 3573 7852 6508
is_linear=0
shrinkage=0.01


Tree=9
num_leaves=31
num_cat=0
split_feature=29 29 29 10 10 73 29 10 191 73 191 10 191 55 191 191 191 191 55 1 31 1 188 191 189 11 26 87 34 10
split_gain=3906.05 844.624 746.202 441.012 310.326 296.212 231.205 172.196 171.353 154.302 146.006 142.156 141.948 148.373 123.892 110.844 108.78 145.956 140.566 93.4243 93.8395 90.5669 86.9824 86.2651 78.2897 77.0241 74.6325 74.1539 74.1264 73.7573
threshold=0.44260754072229885 0.61948417953588508 0.15848715761417079 -19776.499999999996 -19900.499999999996 1.0000000180025095e-35 0.70547741029099975 -18049.499999999996 0.097415959661337176 1.0000000180025095e-35 0.046592962638476322 -14314.499999999998 0.097415959661337176 1.0000000180025095e-35 0.10600767721531344 0.066826562952243138 0.092539102990033234 0.046332362307833275 1.0000000180025095e-35 1.0000000180025095e-35 0.57116562014542527 1.0000000180025095e-35 0.55353074706468985 0.039653120420637213 33975.000000000007 -4957.4999999999991 1.0000000180025095e-35 1.0000000180025095e-35 -469.49999999999994 -20858.499999999996
decision_type=2 2 2 2 2 2 2 2 2 2 2 2 2 2 2 2 2 2 2 2 2 2 2 2 2 2 2 2 2 2
left_child=2 4 7 21 26 10 8 -1 11 16 23 19 13 -12 -14 27 17 24 28 -3 -21 -4 -11 -6 -5 -15 -2 -13 -19 -8
right_child=1 6 3 9 5 -7 29 -9 -10 22 12 15 14 25 -16 -17 -18 18 -20 20 -22 -23 -24 -25 -26 -27 -28 -29 -30 -31
leaf_value=0.0049442877121944505 -0.0055006957838227514 -0.0026201530156820031 0.0025420026440729181 -0.0038295580422173787 5.6956847938738004e-05 -0.0041324276182779915 -0.01200596238942183 0.011311853240822655 -0.011150003300271579 0.0023557254103211017 -0.0022702465020003086 -0.0033766020070100274 -0.01112709623384704 0.0018584214456858609 0.0010207819638267301 0.0034920676847172501 3.5901713132569931e-05 -0.00511278501021626 0.008102248506382274 -0.0074970592121981986 -0.00075799282340871283 -0.0034221229640151725 -0.0059041386845915022 -0.0056323776313190067 0.0040356978499666981 0.0056304336161782697 0.00585043726381253 0.0086034266282662836 0.0047644178369327288 -0.0074072252594229769
leaf_weight=546.37782250344753 1378.0194258093834 884.10115619003773 348.85039100050926 142.78788544237614 1212.8402284383774 1269.8949149847031 424.16575479507446 1906.9374725818634 347.71459023654461 725.91897562146187 403.89764450490475 1245.0736836791039 130.14361201226711 840.29968929290771 236.55079092085361 345.70678554475307 336.07949542999268 120.82753136754036 2392.7000805139542 1544.9588060081005 238.52795201539993 942.49554370343685 154.65461014211178 341.56462624669075 1113.2019757330418 1521.6731844842434 60.46430641412735 53.90449595451355 204.71120393276215 1961.8504690974951
leaf_count=1077 4153 2414 771 405 2983 3656 1555 2555 1248 1616 1079 3483 461 1900 558 734 827 355 3968 4961 610 2646 471 1035 2297 2923 117 90 412 6297
internal_value=0 -0.0032156 0.00519638 0.00341858 -0.000855011 0.000151627 -0.00569322 0.00989373 -0.00439702 0.00471954 0.00131236 -0.00385251 0.00255564 0.00333073 -0.00329062 -0.00154019 0.00549882 0.00596079 0.00726346 -0.00527815 -0.00659576 -0.00181095 0.00090505 -0.00119322 0.00314153 0.0042885 -0.00502357 -0.00287946 0.00109838 -0.00822475
internal_weight=0 14441.4 8935.54 6482.23 7395.35 5956.86 7046 2453.32 4659.99 5190.88 4686.97 4312.27 3132.56 2765.87 366.694 1644.68 4310.31 3974.23 2718.24 2667.59 1783.49 1291.35 880.574 1554.4 1255.99 2361.97 1438.48 1298.98 325.539 2386.02
internal_count=57657 40257 17400 13768 18865 14595 21392 3632 13540 10351 10939 12292 6921 5902 1019 4307 8264 7437 4735 7985 5571 3417 2087 4018 2702 4823 4270 3573 767 7852
is_linear=0
shrinkage=0.01


Tree=10
num_leaves=31
num_cat=0
split_feature=29 29 29 10 10 73 191 29 191 10 10 191 191 55 7 191 1 55 191 191 191 11 191 191 34 30 68 6 8 15
split_gain=3828.26 829.111 730.527 454.948 306.666 296.661 227.317 231.701 157.611 149.221 138.594 134.859 138.021 201.423 124.833 112.651 102.086 99.5507 126.674 94.6162 91.1894 86.3129 85.11 84.4114 83.5756 80.8578 113.303 80.2185 79.2757 77.1434
threshold=0.44260754072229885 0.6209161426047175 0.15185310213095587 -19776.499999999996 -19900.499999999996 1.0000000180025095e-35 0.097415959661337176 0.70547741029099975 0.046592962638476322 -18049.499999999996 -14218.499999999998 0.093498269150146737 0.046592962638476322 1.0000000180025095e-35 17718.750000000004 0.050013557483731028 1.0000000180025095e-35 1.0000000180025095e-35 0.046621881188118823 0.10600767721531344 0.049977272727272738 -4957.4999999999991 0.097681298446600992 0.039653120420637213 -1626.4999999999998 8.5000000000000018 1.0000000180025095e-35 382630.50000000006 1127250.0000000002 1.0000000180025095e-35
decision_type=2 2 2 2 2 2 2 2 2 2 2 2 2 2 2 2 2 2 2 2 2 2 2 2 2 2 2 2 2 2
left_child=2 4 9 16 -2 8 7 10 23 -1 25 12 24 -14 20 -15 -4 -12 -19 -13 -10 22 -16 -6 -5 26 -3 29 -9 -20
right_child=1 6 3 11 5 -7 -8 28 14 -11 17 19 13 15 21 -17 -18 18 27 -21 -22 -23 -24 -25 -26 -27 -28 -29 -30 -31
leaf_value=0.0051365108885584832 -0.0049946776271457115 -0.0049756872600261546 0.0027259894336836292 -0.002277167197733433 -8.6328461020908993e-05 -0.0041473597398775713 -0.011910549999276897 -0.0071335736055465164 0.0069562174404840561 0.011290707720453484 -0.008634409080365989 -0.0068753993551762703 3.2196719235998519e-05 0.010543727099050368 0.0022964396208162699 0.0061193724604599598 -0.0035009356467317642 -0.0042773528287122758 -0.0059865803469829502 0.0030189234974237183 -0.0013582648679810406 0.0054802695075597168 -0.0095697960080511468 -0.0056906680483087523 0.0038443277958066569 0.0050270842842288655 -0.01418962838182946 0.0041211169673731531 -0.013284240734782168 0.0045369584174415846
leaf_weight=502.51800942420959 1453.8501229733229 2438.8495134264231 362.57516425848007 267.23169474303722 1222.678249001503 1280.9468589872122 538.39354722201824 1943.4795286357403 153.56178098917007 1824.3163547217846 171.79308447241783 156.12677240371704 430.42202419042587 803.39524810016155 659.82613199949265 2028.6535588353872 961.38478316366673 558.64340251684189 197.29168739914894 253.69341848790646 935.48943860828876 1357.6881746351719 66.539686217904091 344.46886245906353 1348.3993868976831 75.383027449250221 141.18538926541805 551.13651040196419 234.87957213819027 107.67643792927265
leaf_count=979 4321 7251 794 705 3023 3696 1970 6221 276 2426 565 482 1057 1142 1467 3741 2708 1611 593 557 2406 2631 223 1048 2809 155 538 1155 887 220
internal_value=0 -0.00318514 0.00514257 0.00344667 -0.00087268 0.000122598 -0.00566918 -0.0051458 0.00127646 0.00996161 -0.00378445 0.00475921 0.00522209 0.0064058 0.00255792 0.00737447 -0.00179565 -0.00144599 -0.000573103 -0.000750458 -0.00018588 0.00399173 0.00120942 -0.0013182 0.00283181 -0.00518162 -0.0054799 0.00184407 -0.00779676 -0.00227099
internal_weight=0 14433.8 8938.72 6611.88 7475.05 6021.2 6958.71 6420.32 4740.25 2326.83 4241.96 5287.92 4878.1 3262.47 3173.11 2832.05 1323.96 1586.54 1414.75 409.82 1089.05 2084.05 726.366 1567.15 1615.63 2655.42 2580.03 856.105 2178.36 304.968
internal_count=57657 40257 17400 13995 19091 14770 21166 19196 11074 3405 12088 10493 9454 5940 7003 4883 3502 4144 3579 1039 2682 4321 1690 4071 3514 7944 7789 1968 7108 813
is_linear=0
shrinkage=0.01


Tree=11
num_leaves=31
num_cat=0
split_feature=29 29 29 10 10 73 29 191 10 73 191 191 191 36 191 1 31 14 6 8 2 55 55 1 34 188 191 34 34 29
split_gain=3752.05 813.986 715.747 423.038 298.606 284.74 223.388 165.592 165.062 150.62 140.063 139.649 137.975 143.72 121.449 119.115 119.616 113.838 105.506 178.483 98.1993 97.9672 87.0896 86.9682 86.5918 84.8027 83.0418 80.1716 73.7388 92.6437
threshold=0.44260754072229885 0.61948417953588508 0.15848715761417079 -19776.499999999996 -19900.499999999996 1.0000000180025095e-35 0.70547741029099975 0.097415959661337176 -18049.499999999996 1.0000000180025095e-35 0.046592962638476322 0.078985427972551037 0.097415959661337176 1.0000000180025095e-35 0.10600767721531344 1.0000000180025095e-35 0.57116562014542527 1.0000000180025095e-35 244791.00000000003 451660.50000000006 1.0000000180025095e-35 1.0000000180025095e-35 1.0000000180025095e-35 1.0000000180025095e-35 -407.49999999999994 0.55353074706468985 0.039653120420637213 -1181.4999999999998 -413.49999999999994 0.30815139810548559
decision_type=2 2 2 2 2 2 2 2 2 2 2 2 2 2 2 2 2 2 2 2 2 2 2 2 2 2 2 2 2 2
left_child=2 4 8 23 -2 10 7 11 -1 18 26 15 13 24 -14 20 17 -17 -5 22 21 -3 -20 -4 -12 -11 -6 -21 -29 -30
right_child=1 6 3 9 5 -7 -8 -9 -10 25 12 -13 14 -15 -16 16 -18 -19 19 27 -22 -23 -24 -25 -26 -27 -28 28 29 -31
leaf_value=0.0048427758383758372 -0.0049305884740731797 -0.012295050150497682 0.0024879460872134162 0.0020928550321986455 5.7251059670796581e-05 -0.0040543244865237447 -0.0080824135687110679 -0.010968172870971984 0.011073982079831677 0.0022845773290037152 -0.003808589665787258 0.0024928136860315358 -0.011030975334428537 0.004541031331968798 0.0010031870587965633 -0.011262017567222279 -0.00013892783604823512 -0.0053761937468477829 -0.00091037113822865193 -1.9667308818380881e-05 -0.0043287419065698978 0.0021290474022261814 0.0086635605150448148 -0.003356055809393587 0.0035712492525704267 -0.0058723286500760238 -0.0055283915689155281 0.0074996652352755646 0.0059435275831033821 -0.0022604795034389235
leaf_weight=546.863241314888 1436.404811412096 51.240496307611465 349.04127275943756 791.95547318458557 1212.8360540121794 1268.4393249750137 2379.7606596648693 346.34037227928638 1909.4191436320543 726.43300591409206 391.18106876313686 327.79947181046009 129.90748837590218 2108.4405431002378 236.59425267577171 401.58570006489754 348.08296205103397 1808.1687071323395 100.19572748243809 433.91200013458729 789.6074411123991 580.93803872168064 1837.073992818594 941.61625289916992 267.87027102708817 154.57675114274025 340.99923133850098 588.27641922235489 321.89474378526211 240.47686180472374
leaf_count=1077 4270 185 771 1767 2983 3656 7852 1248 2555 1616 1100 740 461 4228 558 1430 872 5446 254 1048 2279 1340 2946 2646 574 471 1035 1021 602 626
internal_value=0 -0.00315497 0.00508941 0.00334825 -0.000838006 0.000148955 -0.00559023 -0.00431583 0.00968668 0.00462129 0.00128628 -0.00378094 0.00250339 0.00326696 -0.00326235 -0.00429771 -0.00558757 -0.00644584 0.0053908 0.00613242 -0.00197721 0.000959919 0.0081684 -0.00177562 -0.000809067 0.000853415 -0.00116855 0.00364324 0.00502454 0.0024354
internal_weight=0 14426.2 8941.73 6485.45 7392.67 5956.27 7033.52 4653.76 2456.28 5194.79 4687.83 4307.42 3133.99 2767.49 366.502 3979.62 2557.84 2209.75 4313.79 3521.83 1421.79 632.179 1937.27 1290.66 659.051 881.01 1553.84 1584.56 1150.65 562.372
internal_count=57657 40257 17400 13768 18865 14595 21392 13540 3632 10351 10939 12292 6921 5902 1019 11552 7748 6876 8264 6497 3804 1525 3200 3417 1674 2087 4018 3297 2249 1228
is_linear=0
shrinkage=0.01


Tree=12
num_leaves=31
num_cat=0
split_feature=29 29 29 10 10 73 10 73 10 73 34 191 191 36 29 29 191 191 55 7 8 191 191 1 31 188 191 191 19 189
split_gain=3677.43 798.981 700.863 414.404 292.902 279.186 221.958 187.848 161.638 147.491 140.769 137.247 135.313 148.319 110.125 104.658 103.808 138.951 132.28 97.2302 128.978 95.8002 88.8761 85.2696 83.8054 83.1513 81.7604 81.4712 77.1593 76.6217
threshold=0.44260754072229885 0.61948417953588508 0.15848715761417079 -19776.499999999996 -19900.499999999996 1.0000000180025095e-35 -20263.499999999996 1.0000000180025095e-35 -18049.499999999996 1.0000000180025095e-35 -1504.4999999999998 0.046592962638476322 0.092539102990033234 1.0000000180025095e-35 0.67624368593032613 0.70896611267205634 0.092539102990033234 0.046332362307833275 1.0000000180025095e-35 21759.750000000004 675544.50000000012 0.037137626262626268 0.10600767721531344 1.0000000180025095e-35 0.57116562014542527 0.55353074706468985 0.094943126684636128 0.039653120420637213 1.5000000000000002 37227.375000000007
decision_type=2 2 2 2 2 2 2 2 2 2 2 2 2 2 2 2 2 2 2 2 2 2 2 2 2 2 2 2 2 2
left_child=2 4 8 23 -2 11 21 10 -1 16 14 27 13 -13 -8 19 17 29 -19 -12 26 28 -14 -4 -9 -11 -21 -6 -3 -5
right_child=1 6 3 9 5 -7 7 24 -10 25 15 12 22 -15 -16 -17 -18 18 -20 20 -22 -23 -24 -25 -26 -27 -28 -29 -30 -31
leaf_value=0.0047922942614948292 -0.0048848292336730334 -2.5283192628642846e-05 0.0024624400694303384 -0.0034788714178207985 5.667738902457413e-05 -0.0040160962908907605 -0.0029253870528928023 -0.0081327557710893488 0.010957144223361508 0.0022612076403660817 -0.00390381622771678 -0.0009080957187338792 -0.0085607483075901495 0.0045724928823924196 -0.0087367368771204164 -0.0054323819984106268 -1.1322089279853448e-06 0.0010748242700641052 0.0078678439113058097 0.0044547999829460568 -0.0033627640268405583 -0.010851204521813351 0.00099304501843094136 -0.0033240346305858921 -0.00076539355475067547 -0.0058185209475098022 -0.0064097430450660003 -0.0054776837871635441 -0.0085310122735782253 0.0039712929969466185
leaf_weight=547.09632734954357 1435.3669175058603 172.9598897844553 349.1297878921032 157.86796432733536 1212.8442226350307 1267.7116269171238 598.55035302042961 1548.2950429320335 1910.4763913303614 726.60047769546509 675.64113490283489 646.97433692216873 165.46066266298294 2085.5435084402561 716.34012635052204 680.88866779208183 336.21634718775749 325.60659994184971 2396.5741136372089 682.93574452400208 458.51655456423759 966.32738874852657 236.62032854557037 941.18229907751083 171.50296092033386 154.44681957364082 77.084163039922714 340.71578085422516 278.18861052393913 1099.3637437224388
leaf_count=1077 4270 447 771 442 2983 3656 1669 5069 2555 1616 1945 1649 551 4163 2395 2086 827 767 3968 1437 1297 3430 558 2646 444 471 247 1035 926 2260
internal_value=0 -0.00312511 0.0050369 0.00331397 -0.000829799 0.000147465 -0.00553933 -0.00464596 0.00958475 0.0045734 -0.00342922 0.00127332 0.00247787 0.00327486 -0.00609136 -0.00206987 0.0053346 0.00578541 0.00705531 -0.00086117 0.000825884 -0.00907488 -0.00293844 -0.00175834 -0.00739806 0.000844838 0.00335288 -0.00115708 -0.00527011 0.00303579
internal_weight=0 14418.5 8944.56 6486.99 7391.24 5955.87 7027.23 5609.75 2457.57 5196.68 3889.96 4688.16 3134.6 2732.52 1314.89 2575.07 4315.63 3979.41 2722.18 1894.18 1218.54 1417.48 402.081 1290.31 1719.8 881.047 760.02 1553.56 451.149 1257.23
internal_count=57657 40257 17400 13768 18865 14595 21392 16589 3632 10351 11076 10939 6921 5812 4064 7012 8264 7437 4735 4926 2981 4803 1109 3417 5513 2087 1684 4018 1373 2702
is_linear=0
shrinkage=0.01


Tree=13
num_leaves=31
num_cat=0
split_feature=29 29 29 10 10 73 10 73 10 34 191 191 55 29 191 29 29 1 7 8 191 191 10 188 31 191 191 5 2 31
split_gain=3604.38 784.24 686.629 428.077 287.309 273.741 218.26 184.538 139.993 138.213 134.489 132.885 139.533 128.932 117.587 108.25 102.716 96.4647 95.3496 126.403 94.2989 83.2425 112.263 83.3518 82.3453 80.127 79.9311 76.5157 90.6282 76.2563
threshold=0.44260754072229885 0.61948417953588508 0.15185310213095587 -19776.499999999996 -19900.499999999996 1.0000000180025095e-35 -20263.499999999996 1.0000000180025095e-35 -18049.499999999996 -1504.4999999999998 0.046592962638476322 0.097415959661337176 1.0000000180025095e-35 0.33602025966562471 0.10600767721531344 0.67624368593032613 0.70896611267205634 1.0000000180025095e-35 21759.750000000004 675544.50000000012 0.037137626262626268 0.094943126684636128 -13250.499999999998 0.078278571331308985 0.57116562014542527 0.094943126684636128 0.039653120420637213 96975.000000000015 1.0000000180025095e-35 0.57116562014542527
decision_type=2 2 2 2 2 2 2 2 2 2 2 2 2 2 2 2 2 2 2 2 2 2 2 2 2 2 2 2 2 2
left_child=2 4 8 17 -2 10 20 9 -1 15 26 12 -12 21 -13 -8 18 -4 27 25 -3 23 -23 -5 -9 -20 -6 -11 -29 -22
right_child=1 6 3 13 5 -7 7 24 -10 16 11 14 -14 -15 -16 -17 -18 -19 19 -21 29 22 -24 -25 -26 -27 -28 28 -30 -31
leaf_value=0.0049822384690090043 -0.0048395201892973538 -0.0052218683498844098 0.0026453286629697123 -0.017916095216935497 5.6110903995893933e-05 -0.0039782396034271491 -0.0028973531246084126 -0.0080615277964058759 0.010939023335848917 -0.0094262163364684914 -0.0022324302968601707 -0.010870049528671075 0.0041286269140062967 0.002748872092720346 0.00098300743159575018 -0.0086615074380906043 -0.0053828867350680324 -0.0034070987037633257 0.0044076817497830864 -0.0033307588476595503 -0.011928867591536711 -0.0097073293888337801 0.0050991899609048302 0.006500025467807766 -0.00075782114940950625 -0.0063531674991546506 -0.0054274809551843719 0.00097280823998163583 -0.0083759401310472565 -0.0039856882398198144
leaf_weight=503.16957640647888 1434.3225297778845 450.76654084026814 362.86354318261147 14.050240963697432 1212.8522927165031 1266.9811635613441 598.29957863688469 1546.3650210946798 1827.3470643162727 181.16026550531387 403.6963417828083 129.49300976097584 2365.3431489318609 2181.9044411629438 236.64602243900299 715.34130571782589 680.28096063435078 960.07996664941311 683.33199846744537 458.29429836571217 822.91196350753307 77.126794651150703 152.37376695871353 2868.1101869344711 171.48462514579296 76.993361681699753 340.43012291193008 346.03452952206135 148.06455565989017 141.66803401708603
leaf_count=979 4270 1373 794 57 2983 3656 1669 5069 2426 614 1079 461 4823 4695 558 2395 2086 2708 1437 1297 3017 257 306 5178 444 247 1035 846 485 413
internal_value=0 -0.00309554 0.00498515 0.00334103 -0.000821675 0.000145992 -0.00548884 -0.0046029 0.00965293 -0.00339683 0.0012605 0.00245263 0.00320125 0.00461261 -0.00320908 -0.00603622 -0.00204991 -0.00174701 -0.000852705 0.000817557 -0.00899772 0.00591946 0.000123257 0.006381 -0.00733243 0.003318 -0.00114572 -0.00386697 -0.00182869 -0.0107623
internal_weight=0 14410.8 8947.03 6616.51 7389.76 5955.44 7021 5605.65 2330.52 3887.8 4688.46 3135.18 2769.04 5293.57 366.139 1313.64 2574.16 1322.94 1893.88 1218.62 1415.35 3111.66 229.501 2882.16 1717.85 760.325 1553.28 675.259 494.099 964.58
internal_count=57657 40257 17400 13995 18865 14595 21392 16589 3405 11076 10939 6921 5902 10493 1019 4064 7012 3502 4926 2981 4803 5798 563 5235 5513 1684 4018 1945 1331 3430
is_linear=0
shrinkage=0.01


Tree=14
num_leaves=31
num_cat=0
split_feature=29 29 29 10 10 73 191 29 10 191 73 10 7 6 8 55 191 191 11 55 1 188 191 31 1 191 189 191 34 6
split_gain=3532.77 769.834 672.588 397.568 283.939 274.347 219.607 218.134 155.104 145.806 144.329 132.908 119.685 101.862 172.808 95.9541 121.659 87.1637 84.3709 84.1562 81.8792 81.39 80.4297 79.579 87.1408 78.999 99.4418 78.2406 78.2369 77.6579
threshold=0.44260754072229885 0.6209161426047175 0.15848715761417079 -19776.499999999996 -19900.499999999996 1.0000000180025095e-35 0.097415959661337176 0.70547741029099975 -18049.499999999996 0.046592962638476322 1.0000000180025095e-35 -14218.499999999998 17718.750000000004 244791.00000000003 451660.50000000006 1.0000000180025095e-35 0.046621881188118823 0.049977272727272738 -4957.4999999999991 1.0000000180025095e-35 1.0000000180025095e-35 0.55353074706468985 0.097681298446600992 1.5000000000000002 1.0000000180025095e-35 0.071703210418868013 69827.250000000015 0.039653120420637213 -1181.4999999999998 382630.50000000006
decision_type=2 2 2 2 2 2 2 2 2 2 2 2 2 2 2 2 2 2 2 2 2 2 2 2 2 2 2 2 2 2
left_child=2 4 8 20 -2 9 7 11 -1 27 13 23 17 -5 19 -13 -17 -11 22 -15 -4 -12 -14 24 -3 -9 -27 -6 -16 -18
right_child=1 6 3 10 5 -7 -8 25 -10 12 21 15 18 14 28 16 29 -19 -20 -21 -22 -23 -24 -25 -26 26 -28 -29 -30 -31
leaf_value=0.0046940146492675337 -0.0048118818097247842 -0.0027111924139041304 0.0024101166695156702 0.0019920760709924864 -8.63354428732627e-05 -0.0039940980440689037 -0.011621435847059866 -0.0081824318796773488 0.010730494457658463 0.0067466430520440315 0.0021914526959395417 -0.0084104323519587684 0.0021645187283641921 -0.00096097374383735115 -0.0001060511716336689 -0.0041179654039012401 -0.0021665550990974344 -0.0013760033160880524 0.0053312070876434014 0.0084474709980947235 -0.003259820913359952 -0.0058026272112826705 -0.0093879316969671753 0.0045382470510667572 -0.0066213227780343425 -0.01271073931586153 0.0021508696764174461 -0.0054889816386338884 0.0048747958936353579 0.0041256324598247379
leaf_weight=547.53132435679436 1449.6208652257919 855.58965349197388 349.30824312567711 792.61114057898521 1222.6765819340944 1277.9803596735001 534.85820771753788 1941.4028820544481 1912.206289306283 153.83696056902409 727.0875418484211 171.14763766527176 660.61226163804531 100.25241135060787 434.22916398942471 557.33597299456596 304.54726392030716 935.47343862056732 1359.3337582498789 1839.6813263446093 940.29693274199963 154.40689343214035 66.315120458602905 84.658698871731758 1707.2248218655586 62.089805707335472 163.79989695549011 343.31931358575821 1151.9992408156395 551.07048790156841
leaf_count=1077 4321 2363 771 1767 3023 3696 1970 6481 2555 276 1616 565 1467 254 1048 1611 813 2406 2631 2946 2646 471 223 176 5405 232 395 1048 2249 1155
internal_value=0 -0.00306629 0.00493386 0.00324614 -0.00083877 0.000118031 -0.00546582 -0.00495129 0.00938679 0.00122636 0.00447869 -0.00362994 0.0024578 0.00523134 0.00595946 -0.00133882 -0.000482248 -0.000228889 0.00386061 0.00796126 -0.00172404 0.00079117 0.00111063 -0.00500083 -0.00531593 -0.00753119 -0.00193411 -0.00127078 0.00351129 0.001886
internal_weight=0 14402.9 8949.61 6489.87 7469.17 6019.55 6933.73 6398.87 2459.74 4741.57 5200.27 4231.57 3175.57 4318.77 3526.16 1584.1 1412.95 1089.31 2086.26 1939.93 1289.61 881.494 726.927 2647.47 2562.81 2167.29 225.89 1566 1586.23 855.618
internal_count=57657 40257 17400 13768 19091 14770 21166 19196 3632 11074 10351 12088 7003 8264 6497 4144 3579 2682 4321 3200 3417 2087 1690 7944 7768 7108 627 4071 3297 1968
is_linear=0
shrinkage=0.01


Tree=15
num_leaves=31
num_cat=0
split_feature=29 29 10 10 73 29 29 10 191 191 191 7 29 2 191 188 1 1 68 7 31 34 10 10 7 9 55 34 12 191
split_gain=3467.41 1050.86 459.013 365.739 343.692 282.688 231.155 159.051 151.714 156.613 140.66 137.745 118.598 116.822 112.555 101.478 96.2189 94.8254 92.2159 101.739 86.8451 86.6726 85.8616 84.362 79.7209 79.2867 78.8883 76.7528 76.1938 73.5421
threshold=0.35642626641090697 0.61045692366503612 -19531.499999999996 -20012.499999999996 1.0000000180025095e-35 0.15848715761417079 0.70547741029099975 -14314.499999999998 0.046592962638476322 0.049977272727272738 0.048565925686292637 17718.750000000004 0.12405334710055056 1.0000000180025095e-35 0.092539102990033234 0.094946099237501427 1.0000000180025095e-35 1.0000000180025095e-35 1.0000000180025095e-35 27567.000000000004 0.57116562014542527 -1143.4999999999998 -19592.499999999996 -13250.499999999998 16458.750000000004 0.0081490000000000017 1.0000000180025095e-35 -1626.4999999999998 -2225.4999999999995 0.046854452383811702
decision_type=2 2 2 2 2 2 2 2 2 2 2 2 2 2 2 2 2 2 2 2 2 2 2 2 2 2 2 2 2 2
left_child=2 3 12 28 8 -4 7 16 -5 10 -10 -11 -1 26 15 -7 24 -14 19 25 22 -13 -18 -16 -3 -6 -9 -17 -2 -28
right_child=1 6 5 4 18 14 -8 13 9 11 -12 21 17 -15 23 27 20 -19 -20 -21 -22 -23 -24 -25 -26 -27 29 -29 -30 -31
leaf_value=0.0061437190899733748 -0.0050861720466261855 -0.0093140318659347219 0.010281592225581315 -0.00045182130080299691 0.0012828941965796761 -0.0094143846311528639 -0.0078177772020382313 -0.007618897194500639 0.0030282625280888755 -0.00071445017946754569 0.011580264676910425 0.00039061716749424927 0.0040367211537199474 -0.0049403312397023639 -0.0087206905828420278 0.002243695165733561 -0.010097108393970787 -0.0026978943821365196 -0.010932894304998816 -8.510729712908945e-05 -0.0014076848078916776 0.0049112020364777713 -0.0056783907918222546 0.0034287108451218442 -0.0017758630073657995 -0.0073801376936379962 -0.0025853695989834541 0.0069004204790296501 0.002393474149127846 0.0027994895475670352
leaf_weight=320.97136235237122 1512.9696298986673 166.65479725599289 2032.1460920423269 1911.3561002016068 133.58985242247581 41.724320992827415 2367.2996359169483 120.32705327868462 412.36796703934669 1180.6085237711668 360.42379948496819 601.59559467434883 290.3773445636034 746.3822228461504 88.894827201962471 407.75991363823414 735.75317966938019 746.70744505524635 149.69215127825737 719.7938037365675 272.80151069164276 1437.6984916031361 1093.0586622953415 160.05819466710091 886.96614371240139 505.09967128932476 391.29522322118282 2681.7453676760197 149.66647078096867 720.84840056300163
leaf_count=588 4536 562 2787 4800 321 137 7852 389 868 2955 482 1429 596 2205 289 891 2577 2051 523 1816 721 2824 3373 345 2383 1606 1077 4714 348 1612
internal_value=0 -0.00246327 0.00602981 -0.00017409 0.000776711 0.00733409 -0.00523263 -0.00404063 0.00186504 0.00297416 0.00701685 0.00200389 0.000831772 -0.00181811 0.00556207 0.00607661 -0.00543452 -0.000812244 -0.00348378 -0.00266296 -0.00667098 0.00357762 -0.00745609 -0.000909533 -0.0029682 -0.00556816 7.27038e-05 0.00628582 -0.00441287 0.000904887
internal_weight=0 16576.2 6770.38 9074.86 7412.23 5412.33 7501.39 5134.09 5904.05 3992.69 772.792 3219.9 1358.06 1978.85 3380.18 3131.23 3155.23 1037.08 1508.18 1358.48 2101.61 2039.29 1828.81 248.953 1053.62 638.69 1232.47 3089.51 1662.64 1112.14
internal_count=57657 45259 12398 22508 17624 9163 22751 14899 13358 8558 1350 7208 3235 5283 6376 5742 9616 2647 4266 3743 6671 4253 5950 634 2945 1927 3078 5605 4884 2689
is_linear=0
shrinkage=0.01


Tree=16
num_leaves=31
num_cat=0
split_feature=29 29 10 10 73 29 29 10 191 191 191 7 29 2 191 188 1 1 68 7 31 34 10 10 7 9 55 34 12 73
split_gain=3398.16 1031.3 449.531 358.673 336.916 277.034 227.295 156.184 148.642 153.367 137.652 134.946 116.182 114.602 110.224 99.4452 94.5597 92.9391 90.6031 99.8341 85.3478 84.8815 84.511 82.7478 78.3025 77.8387 77.3993 75.1416 74.7577 72.786
threshold=0.35642626641090697 0.61045692366503612 -19531.499999999996 -20012.499999999996 1.0000000180025095e-35 0.15848715761417079 0.70547741029099975 -14314.499999999998 0.046592962638476322 0.049977272727272738 0.048565925686292637 17718.750000000004 0.12405334710055056 1.0000000180025095e-35 0.092539102990033234 0.094946099237501427 1.0000000180025095e-35 1.0000000180025095e-35 1.0000000180025095e-35 27567.000000000004 0.57116562014542527 -1143.4999999999998 -19592.499999999996 -13250.499999999998 16458.750000000004 0.0081490000000000017 1.0000000180025095e-35 -1626.4999999999998 -2225.4999999999995 1.0000000180025095e-35
decision_type=2 2 2 2 2 2 2 2 2 2 2 2 2 2 2 2 2 2 2 2 2 2 2 2 2 2 2 2 2 2
left_child=2 3 12 28 8 -4 7 16 -5 10 -10 -11 -1 26 15 -7 24 -14 19 25 22 -13 -18 -16 -3 -6 -9 -17 -2 -29
right_child=1 6 5 4 18 14 -8 13 9 11 -12 21 17 -15 23 27 20 -19 -20 -21 -22 -23 -24 -25 -26 -27 -28 29 -30 -31
leaf_value=0.0060793641775934108 -0.0050391961938341858 -0.0092339390962478535 0.01017548450351918 -0.0004473275221108762 0.0012698398367349322 -0.0093300613750372883 -0.0077505427174771263 -0.0075516801138929071 0.0029972853036366177 -0.00070735951668265159 0.011455030726396068 0.00038669685926773413 0.0039948424671438091 -0.0048942831297356069 -0.0086428602938002069 0.002220853050497911 -0.010013827824496571 -0.0026718904631677681 -0.010840564021130763 -8.4256624601036434e-05 -0.0013938814279282456 0.0048599865881746212 -0.0056268746520804569 0.0033930874350090964 -0.0017585542196000554 -0.0073140670585970001 0.00089574764956578019 0.0075335029654594156 0.0023687083947758021 0.0029832068812248522
leaf_weight=321.12466448545456 1511.8089229017496 166.42048953473568 2032.8001523464918 1911.2529042363167 133.61345322430134 41.680621445178986 2363.9739148914814 120.18480782210827 412.46305315196514 1180.5191362649202 360.71902894973755 601.61739824712276 290.48664124310017 745.8731023222208 88.798865094780922 407.83390960097313 734.45988395810127 746.43620915710926 149.45859125256538 719.78537997603416 272.74822425842285 1438.3175355941057 1092.0405138880014 160.12092231214046 886.74044039845467 504.5684340596199 1112.2504147142172 2267.0613174885511 149.71871103346348 416.04836468398571
leaf_count=588 4536 562 2787 4800 321 137 7852 389 868 2955 482 1429 596 2205 289 891 2577 2051 523 1816 721 2824 3373 345 2383 1606 2689 3817 348 897
internal_value=0 -0.0024398 0.00596772 -0.00017238 0.000768925 0.00725803 -0.00518496 -0.00400287 0.00184612 0.00294371 0.00694315 0.00198351 0.000823452 -0.00180044 0.00550422 0.00601315 -0.00538503 -0.000804252 -0.00345068 -0.00263734 -0.00661175 0.00354072 -0.00739093 -0.000900579 -0.00293981 -0.00551689 7.19701e-05 0.00622005 -0.00437168 0.00682792
internal_weight=0 16568.5 6772.39 9073.84 7412.31 5414.34 7494.69 5130.72 5904.89 3993.64 773.182 3220.45 1358.05 1978.31 3381.54 3132.62 3152.41 1036.92 1507.43 1357.97 2099.25 2039.93 1826.5 248.92 1053.16 638.182 1232.44 3090.94 1661.53 2683.11
internal_count=57657 45259 12398 22508 17624 9163 22751 14899 13358 8558 1350 7208 3235 5283 6376 5742 9616 2647 4266 3743 6671 4253 5950 634 2945 1927 3078 5605 4884 4714
is_linear=0
shrinkage=0.01


Tree=17
num_leaves=31
num_cat=0
split_feature=29 29 29 10 10 73 191 29 191 10 10 191 191 55 11 191 55 191 191 1 7 29 8 30 68 191 6 6 15 8
split_gain=3334.91 726.93 631.407 395.378 267.892 258.975 216.589 207.488 137.983 130.473 126.027 122.625 127.796 185.954 115.04 107.603 91.9121 117.781 91.7098 89.9677 84.4102 79.4115 78.7621 78.3152 111.769 76.7462 76.365 76.0409 75.5352 72.6535
threshold=0.44260754072229885 0.6209161426047175 0.15185310213095587 -19776.499999999996 -19900.499999999996 1.0000000180025095e-35 0.097415959661337176 0.70547741029099975 0.046592962638476322 -18049.499999999996 -14218.499999999998 0.093498269150146737 0.046592962638476322 1.0000000180025095e-35 -4957.4999999999991 0.050013557483731028 1.0000000180025095e-35 0.046621881188118823 0.10600767721531344 1.0000000180025095e-35 21314.250000000004 0.23348701432133467 1127250.0000000002 8.5000000000000018 1.0000000180025095e-35 0.039653120420637213 382630.50000000006 270022.50000000006 1.0000000180025095e-35 451660.50000000006
decision_type=2 2 2 2 2 2 2 2 2 2 2 2 2 2 2 2 2 2 2 2 2 2 2 2 2 2 2 2 2 2
left_child=2 4 9 19 -2 8 7 10 25 -1 23 12 21 -14 27 -15 -12 -18 -13 -4 -16 -5 -9 24 -3 -6 28 -10 -19 -28
right_child=1 6 3 11 5 -7 -8 22 14 -11 16 18 13 15 20 -17 17 26 -20 -21 -22 -23 -24 -25 -26 -27 29 -29 -30 -31
leaf_value=0.0047576698485604346 -0.0046840116635724176 -0.0046502330638781555 0.0025586496643096391 0.0064659929888646415 -7.2669473531828473e-05 -0.003890606452893863 -0.011446774882882527 -0.0066675250209718298 -0.0036157426913649942 0.010503732154400699 -0.0082225276325321745 -0.0068525012348180734 -0.00010842364995026904 0.010034215467256118 0.0014147018084810167 0.0057158442833554392 -0.004031731004133148 -0.0058244713911370337 0.002887990303733606 -0.0032861528779810972 0.00554189805910994 0.0013157507267462837 -0.012831104682594028 0.0052015828622479525 -0.013835844552656056 -0.0054258606286458908 0.007400031525238486 0.0017662806301639617 0.0045952841824300587 0.00010636356582206277
leaf_weight=504.0205409526825 1446.4882001280785 2425.3451935052872 363.15608921647072 396.45207524299622 1222.4771753847599 1275.8630862683058 532.54489634931087 1925.9904664009809 408.39471274614334 1829.7338102757931 170.56364777684212 156.04803878068924 431.01575565338135 805.49870336055756 854.45016700029373 2034.145732998848 556.59777435660362 196.84287691116333 253.99485884606838 958.33986899256706 1179.7591628581285 1222.7581004500389 232.33464404940605 75.200039848685265 140.1195026487112 342.9426155090332 301.688447073102 734.92860721051693 107.6030959635973 249.53693653643131
leaf_count=979 4321 7251 794 717 3023 3696 1970 6221 1137 2426 565 482 1057 1142 1967 3741 1611 593 557 2708 2245 2797 887 155 538 1048 543 1654 220 612
internal_value=0 -0.0029837 0.0047901 0.00321369 -0.00081986 0.000108802 -0.00531995 -0.00480868 0.00118465 0.00926276 -0.0035197 0.00443388 0.00487436 0.00601184 0.00238183 0.0069408 -0.00128852 -0.00045108 -0.000818901 -0.00167996 0.00380831 0.00257675 -0.00733101 -0.00485708 -0.00515193 -0.00124541 0.00187807 -0.000156176 -0.00214172 0.00409823
internal_weight=0 14379.7 8955.16 6621.41 7465.3 6018.82 6914.37 6381.82 4742.95 2333.75 4223.5 5299.91 4889.87 3270.66 3177.53 2839.64 1582.83 1412.27 410.043 1321.5 2034.21 1619.21 2158.33 2640.66 2565.46 1565.42 855.671 1143.32 304.446 551.225
internal_count=57657 40257 17400 13995 19091 14770 21166 19196 11074 3405 12088 10493 9454 5940 7003 4883 4144 3579 1039 3502 4212 3514 7108 7944 7789 4071 1968 2791 813 1155
is_linear=0
shrinkage=0.01


Tree=18
num_leaves=31
num_cat=0
split_feature=29 29 10 10 73 29 29 10 191 191 191 7 2 29 191 188 1 1 68 7 31 10 34 10 7 9 55 34 12 10
split_gain=3269.39 992.907 431.509 345.113 325.201 265.343 219.562 150.96 142.387 148.658 134.756 130.13 112.219 111.917 106.179 97.1322 92.852 89.6955 89.0082 97.9643 83.7544 83.2169 82.9418 80.8129 76.8425 76.3388 74.8591 73.5535 73.3326 72.6501
threshold=0.35642626641090697 0.61045692366503612 -19531.499999999996 -20012.499999999996 1.0000000180025095e-35 0.15848715761417079 0.70547741029099975 -14314.499999999998 0.046592962638476322 0.049977272727272738 0.048565925686292637 17718.750000000004 1.0000000180025095e-35 0.12405334710055056 0.092539102990033234 0.094946099237501427 1.0000000180025095e-35 1.0000000180025095e-35 1.0000000180025095e-35 27567.000000000004 0.57116562014542527 -19592.499999999996 -1143.4999999999998 -13250.499999999998 16458.750000000004 0.0081490000000000017 1.0000000180025095e-35 -1626.4999999999998 -2225.4999999999995 -21254.499999999996
decision_type=2 2 2 2 2 2 2 2 2 2 2 2 2 2 2 2 2 2 2 2 2 2 2 2 2 2 2 2 2 2
left_child=2 3 13 28 8 -4 7 16 -5 10 -10 -11 26 -1 15 -7 24 -15 19 25 21 -18 -13 -16 -3 -6 -9 -17 -2 -8
right_child=1 6 5 4 18 14 29 12 9 11 -12 22 -14 17 23 27 20 -19 -20 -21 -22 -23 -24 -25 -26 -27 -28 -29 -30 -31
leaf_value=0.005966195031556089 -0.0049556795862724578 -0.009109996979986431 0.0099692110896827477 -0.00043591800331956645 0.0012754356415609299 -0.0092717750043833248 -0.011768807252232455 -0.0074197416334896935 0.0029153683092741907 -0.00070516473846816258 0.011280440782894981 0.00034860803504591651 -0.0048286369193550989 0.003924167055271011 -0.0085474564551178238 0.0021464101619622215 -0.009888263999827368 -0.0026244272082552693 -0.010728917870111175 -6.1444478352154684e-05 -0.0013375356766744276 -0.0055297740257864185 0.0047695418772598728 0.0033514280173219126 -0.0016968186643432736 -0.0072271999614051874 0.0008971107463468294 0.0067032744878829211 0.002382513318528099 -0.0068757081886153095
leaf_weight=321.38055032491684 1509.6591821312904 166.03411030769348 2033.7366387099028 1910.9000490307808 133.59300124645233 41.648853316903114 357.72457826137543 119.89215211570263 412.68020325899124 1180.4433577656746 361.07446926832199 601.80767060816288 745.03952294588089 290.66404435038567 88.6735700070858 408.04727125167847 732.41472814977169 745.89092937111855 149.15448579192162 719.50847171247005 272.51556451618671 1090.0177280902863 1439.3270459622145 160.18999491631985 885.88721734285355 503.82083924114704 1112.0961683392525 2685.1329455971718 149.68418395519257 1999.4679973274469
leaf_count=588 4536 562 2787 4800 321 137 1344 389 868 2955 482 1429 2205 596 289 891 2577 2051 523 1816 721 3373 2824 345 2383 1606 2689 4714 348 6508
internal_value=0 -0.00239548 0.00585106 -0.000171363 0.000751482 0.00711454 -0.00509248 -0.00393051 0.00180919 0.00288299 0.00681895 0.00193766 -0.00176498 0.000810419 0.00539877 0.00589788 -0.00529101 -0.000788113 -0.00339644 -0.00259045 -0.00650821 -0.0072814 0.00346607 -0.000888311 -0.00286691 -0.00544517 8.77481e-05 0.00610214 -0.00429372 -0.00761828
internal_weight=0 16552.7 6775.36 9071.65 7412.31 5417.43 7481.09 5123.9 5906.23 3995.33 773.755 3221.58 1977.03 1357.94 3383.69 3134.83 3146.87 1036.55 1506.08 1356.92 2094.95 1822.43 2041.13 248.864 1051.92 637.414 1231.99 3093.18 1659.34 2357.19
internal_count=57657 45259 12398 22508 17624 9163 22751 14899 13358 8558 1350 7208 5283 3235 6376 5742 9616 2647 4266 3743 6671 5950 4253 634 2945 1927 3078 5605 4884 7852
is_linear=0
shrinkage=0.01


Tree=19
num_leaves=31
num_cat=0
split_feature=29 29 29 10 10 73 10 73 34 10 73 191 191 36 191 29 10 36 191 191 29 7 8 1 34 31 19 191 191 5
split_gain=3208.2 699.953 605.64 379.94 255.778 243.485 205.658 180.79 134.484 126.114 120.221 119.523 127.613 130.699 114.837 102.266 95.3162 111.229 110.936 92.9278 92.611 90.6355 121.235 86.8299 84.8271 79.6769 77.0888 75.9211 75.4726 74.6884
threshold=0.44260754072229885 0.61948417953588508 0.15185310213095587 -19776.499999999996 -19900.499999999996 1.0000000180025095e-35 -20263.499999999996 1.0000000180025095e-35 -1504.4999999999998 -18049.499999999996 1.0000000180025095e-35 0.046592962638476322 0.097415959661337176 1.0000000180025095e-35 0.10600767721531344 0.67624368593032613 -14019.499999999998 1.0000000180025095e-35 0.094943126684636128 0.037137626262626268 0.70896611267205634 21759.750000000004 675544.50000000012 1.0000000180025095e-35 -407.49999999999994 0.57116562014542527 1.5000000000000002 0.094943126684636128 0.039653120420637213 96975.000000000015
decision_type=2 2 2 2 2 2 2 2 2 2 2 2 2 2 2 2 2 2 2 2 2 2 2 2 2 2 2 2 2 2
left_child=2 4 9 23 -2 11 19 8 15 -1 16 28 13 24 -14 -8 18 -18 -5 26 21 29 27 -4 -13 -9 -3 -23 -6 -10
right_child=1 6 3 10 5 -7 7 25 20 -11 -12 12 14 -15 -16 -17 17 -19 -20 -21 -22 22 -24 -25 -26 -27 -28 -29 -30 -31
leaf_value=0.0046483043515932708 -0.0045832858746208769 0.00040155825190684168 0.0025158839639250023 0.0039656853513356984 7.5012128344799719e-05 -0.003768705659183599 -0.0026999477655529698 -0.0077681079436166499 -0.0091308448033970754 0.010295732546851774 0.0010333025670509557 -0.0038231088236486527 -0.010824622753943372 0.0042461831063633024 0.00089104991311193674 -0.008316750921112278 0.001805806012873156 0.0073169907312765261 -0.0061369581911353511 -0.010381081328727138 -0.0049900800476907984 0.0044623386107289628 -0.0031167232521851379 -0.0032260412378465986 0.0034791758515517537 -0.00057151924515480817 -0.0081335114601449564 -0.0060454592379256145 -0.005259654831321855 -0.0016048154282610869
leaf_weight=504.39035505056381 1428.0823888778687 171.65917783975601 363.2923522144556 1798.2617817223072 1212.5806921720505 1262.7116753011942 596.3023729622364 1537.3523186147213 180.10739763081074 1830.3085728287697 907.1361467987299 391.19686742126942 129.35917483270168 2113.4033930152655 236.8592281639576 710.25821533799171 446.57982836663723 2034.7880724221468 115.68560199439526 956.10626797378063 675.1095240265131 682.64622735977173 456.66120125353336 957.44992786645889 268.10616317391396 170.95046651363373 275.91471549868584 76.462257772684097 339.43846972286701 492.26703484356403
leaf_count=979 4270 447 794 3598 2983 3656 1669 5069 614 2426 2115 1100 461 4228 558 2395 991 3439 350 3430 2086 1437 1297 2708 574 444 926 247 1035 1331
internal_value=0 -0.00292943 0.00469618 0.00315239 -0.00078255 0.000129119 -0.00519929 -0.00433834 -0.0031422 0.00907566 0.00434774 0.00117834 0.00230075 0.00303353 -0.00324727 -0.00575329 0.0050318 0.00632512 0.00335505 -0.00862065 -0.00181126 -0.000674667 0.000954673 -0.00164663 -0.000853628 -0.00704794 -0.00486003 0.00340393 -0.00109172 -0.0036208
internal_weight=0 14363.5 8957.89 6623.19 7381.74 5953.66 6981.8 5578.12 3869.81 2334.7 5302.45 4690.94 3138.92 2772.71 366.218 1306.56 4395.32 2481.37 1913.95 1403.68 2563.25 1888.14 1215.77 1320.74 659.303 1708.3 447.574 759.108 1552.02 672.374
internal_count=57657 40257 17400 13995 18865 14595 21392 16589 11076 3405 10493 10939 6921 5902 1019 4064 8378 4430 3948 4803 7012 4926 2981 3502 1674 5513 1373 1684 4018 1945
is_linear=0
shrinkage=0.01


Tree=20
num_leaves=31
num_cat=0
split_feature=29 29 10 10 73 29 10 73 191 6 191 191 191 1 10 29 31 191 7 188 191 191 55 1 191 68 19 10 21 191
split_gain=3146.88 955.739 414.362 321.684 312.151 254.263 222.918 189.135 142.94 170.126 139.168 117.138 128.815 112.188 110.804 107.8 103.485 103.264 102.795 95.1436 92.5655 88.7079 88.2775 86.5759 85.1578 78.5774 78.1839 78.111 77.8457 79.0404
threshold=0.35642626641090697 0.6071368043962565 -19531.499999999996 -18049.499999999996 1.0000000180025095e-35 0.15848715761417079 -20263.499999999996 1.0000000180025095e-35 0.046621881188118823 339437.25000000006 0.044040033388981645 0.049977272727272738 0.048565925686292637 1.0000000180025095e-35 -13408.499999999998 0.12405334710055056 0.57116562014542527 0.092539102990033234 17718.750000000004 0.094946099237501427 0.039653120420637213 0.026510406544802349 1.0000000180025095e-35 1.0000000180025095e-35 0.034842518442119975 1.0000000180025095e-35 1.5000000000000002 -13250.499999999998 1.5000000000000002 0.092034994433175879
decision_type=2 2 2 2 2 2 2 2 2 2 2 2 2 2 2 2 2 2 2 2 2 2 2 2 2 2 2 2 2 2
left_child=2 3 15 13 10 -4 16 8 -8 -10 20 12 -12 -2 -11 -1 24 19 -13 -7 21 -5 -9 -17 26 -6 -3 -19 -16 -30
right_child=1 6 5 4 25 17 7 22 9 14 11 18 -14 -15 28 23 -18 27 -20 -21 -22 -23 -24 -25 -26 -27 -28 -29 29 -31
leaf_value=0.0058557732135336741 0.00023016390723891702 0.00081946257265289534 0.0097700465159370441 -0.017968608334523808 -0.0024107414018097605 -0.0092290761548520246 -0.0051939283729720495 -0.012772638038106552 -0.0043317962733142217 -0.0014114537707989917 0.003286246035476842 -0.00020530075560852242 0.011442403657572684 -0.004387372550699738 -0.0035723836001998526 0.0038558342047512796 -0.0020342939656479474 -0.0084426669219284482 0.0037873458197929056 0.0059907913670878485 -0.0062940372947715628 0.0010988782633511976 -0.0059732627275043146 -0.0025772176988686462 -0.011004722281072124 -0.010514968858575256 -0.0088651562962623349 0.0032596145495237734 0.0067665777185189546 -0.016966786509475366
leaf_weight=321.61318242549896 732.61237895488739 132.41594542562962 2034.2480743229389 24.923305466771126 1188.3806822150946 41.625487625598907 1692.9158796817064 216.35054321587086 1141.0136430263519 862.8711000084877 467.11230993270874 1019.7676431238651 330.75048537552357 1867.227108091116 103.31180946528912 290.83008322119713 220.75801993906498 88.533194199204445 1753.8710168302059 3095.2150679975748 225.34750209748745 1160.2376235574484 1626.1841080784798 745.34136562049389 948.46485103666782 133.03244952857494 225.00481197237968 160.34148439764977 449.57497721910477 14.484449654817579
leaf_count=588 1818 341 2787 101 3266 137 5169 815 3394 2330 981 2503 431 5474 295 596 614 289 3585 5605 698 2733 5097 2051 3471 466 773 345 844 60
internal_value=0 -0.00235246 0.00573823 -0.000126442 0.0010943 0.00697579 -0.00494881 -0.00409438 -0.00293754 -0.00145193 0.00224037 0.00329071 0.00666735 -0.00308619 0.000845561 0.000798197 -0.00836664 0.00529691 0.00231939 0.00578883 -0.000419156 0.000697899 -0.00677165 -0.000771604 -0.00943711 -0.00322663 -0.00527723 -0.000903285 0.00427808 0.0060258
internal_weight=0 16536.6 6777.75 8903.26 6303.42 5419.96 7633.35 6106.71 4264.17 2571.26 4982.01 3571.5 797.863 2599.84 1430.24 1357.78 1526.64 3385.72 2773.64 3136.84 1410.51 1185.16 1842.53 1036.17 1305.89 1321.41 357.421 248.875 567.371 464.059
internal_count=57657 45259 12398 22056 14764 9163 23203 18004 12092 6923 11032 7500 1412 7292 3529 3235 5199 6376 6088 5742 3532 2834 5912 2647 4585 3732 1114 634 1199 904
is_linear=0
shrinkage=0.01


Tree=21
num_leaves=31
num_cat=0
split_feature=29 29 29 10 10 73 191 29 191 10 1 73 31 11 12 2 55 10 36 191 1 34 8 189 188 191 6 26 11 22
split_gain=3086.42 674.586 581.154 365.385 248.816 239.816 212.207 197.998 127.975 121.973 121.709 116.612 113.611 111.758 108.587 105.486 98.0045 92.6401 108.679 106.962 83.4138 82.6735 77.8202 76.4371 74.2984 73.077 72.2417 71.7651 70.5992 70.4332
threshold=0.44260754072229885 0.6209161426047175 0.15185310213095587 -19776.499999999996 -19900.499999999996 1.0000000180025095e-35 0.097415959661337176 0.70547741029099975 0.046592962638476322 -18049.499999999996 1.0000000180025095e-35 1.0000000180025095e-35 0.57116562014542527 -4957.4999999999991 -1920.4999999999998 1.0000000180025095e-35 1.0000000180025095e-35 -14019.499999999998 1.0000000180025095e-35 0.094943126684636128 1.0000000180025095e-35 -1532.4999999999998 1127250.0000000002 37227.375000000007 0.55353074706468985 0.039653120420637213 270022.50000000006 1.0000000180025095e-35 -5541.4999999999991 6.5000000000000009
decision_type=2 2 2 2 2 2 2 2 2 2 2 2 2 2 2 2 2 2 2 2 2 2 2 2 2 2 2 2 2 2
left_child=2 4 9 20 27 8 7 10 25 -1 15 17 14 26 -12 16 -3 19 -19 -5 -4 23 -9 -15 -13 29 -10 -2 -14 -6
right_child=1 6 3 11 5 -7 -8 22 13 -11 12 24 28 21 -16 -17 -18 18 -20 -21 -22 -23 -24 -25 -26 -27 -28 -29 -30 -31
leaf_value=0.0045415624137878632 -0.0049900320463282721 -0.0116782049347923 0.0024623502202174821 0.0038833861738316118 0.008986377025784623 -0.0037524050509857272 -0.011216788583131859 -0.0064371517664216695 -0.0035871271718957666 0.010094005113598536 -0.0069129075210881546 0.0023245380810955622 -0.005327376764629378 -0.011556872643287239 -0.0021842964495893727 -0.0034634444114124141 0.002866711538755336 0.0017454795880594562 0.007191864585541944 -0.0060428136949573601 -0.0031652704014340665 0.0046631989383792392 -0.012584284780979005 0.0013107354941013195 -0.0051813968703886513 -0.0052909438738899866 0.001658824756394264 0.0061259853447415084 0.0037875274094980914 -0.00069906021230308998
leaf_weight=504.72251817584038 1381.7180211395025 49.982033714652061 363.46378335356712 1799.1141978353262 80.366624265909195 1272.9121444821358 529.23059092462063 1916.2745138555765 408.17900803685188 1830.4999729692936 1605.9446198195219 747.23058292269707 132.96014639735222 53.690844982862473 696.14998503029346 857.97658808529377 633.29967115819454 446.7686280310154 2036.1022640019655 115.52938038110733 956.53396466374397 1652.8462375849485 230.74073860049248 329.32839220762253 160.14002940058708 342.10957361757755 735.54778109490871 60.626741707324982 235.46005487442017 1141.951184913516
leaf_count=979 4202 182 794 3598 134 3696 1970 6221 1137 2426 5180 1637 399 185 1937 2447 1431 991 3439 350 2708 3274 887 753 478 1048 1654 119 512 2889
internal_value=0 -0.00287618 0.00460436 0.00309232 -0.00079249 0.000101716 -0.00513267 -0.0046263 0.00113585 0.00889393 -0.00336643 0.0042638 -0.00465785 0.00228793 -0.00548298 -0.0011288 0.00180275 0.00493727 0.00621184 0.00328444 -0.00161569 0.00369313 -0.00709779 -0.000493019 0.000999831 -0.00120566 -0.000213377 -0.00452279 0.000498025 -6.22488e-05
internal_weight=0 14347.3 8960.11 6624.88 7459.28 6016.93 6888.02 6358.79 4744.02 2335.22 4211.77 5304.89 2670.51 3179.59 2302.09 1541.26 683.282 4397.51 2482.87 1914.64 1320 2035.87 2147.02 383.019 907.371 1564.43 1143.73 1442.34 368.42 1222.32
internal_count=57657 40257 17400 13995 19091 14770 21166 19196 11074 3405 12088 10493 8028 7003 7117 4060 1613 8378 4430 3948 3502 4212 7108 938 2115 4071 2791 4321 911 3023
is_linear=0
shrinkage=0.01


Tree=22
num_leaves=31
num_cat=0
split_feature=29 29 10 10 73 29 10 73 191 6 191 191 191 1 10 29 31 7 191 191 191 191 191 55 191 1 36 32 5 22
split_gain=3029.28 919.99 397.995 309.998 300.516 243.918 218.248 185.034 140.193 166.204 134.572 114.763 125.583 109.34 108.144 103.849 101.301 99.9686 95.8599 95.3225 90.6898 89.8899 87.0371 86.9152 83.9081 83.5667 79.0683 108.594 78.8546 78.6019
threshold=0.35642626641090697 0.6071368043962565 -19531.499999999996 -18049.499999999996 1.0000000180025095e-35 0.16769761344449371 -20263.499999999996 1.0000000180025095e-35 0.046621881188118823 339437.25000000006 0.044040033388981645 0.049977272727272738 0.048565925686292637 1.0000000180025095e-35 -13711.499999999998 0.12405334710055056 0.57116562014542527 17718.750000000004 0.092539102990033234 0.046592962638476322 0.049977272727272738 0.039653120420637213 0.026510406544802349 1.0000000180025095e-35 0.034842518442119975 1.0000000180025095e-35 1.0000000180025095e-35 3.5000000000000004 130581.00000000001 8.5000000000000018
decision_type=2 2 2 2 2 2 2 2 2 2 2 2 2 2 2 2 2 2 2 2 2 2 2 2 2 2 2 2 2 2
left_child=2 3 15 13 10 -4 16 8 -8 -10 21 12 -12 -2 -11 -1 24 -13 19 28 -21 22 -5 -9 -3 -17 27 -22 -7 -30
right_child=1 6 5 4 -6 18 7 23 9 14 11 17 -14 -15 -16 25 -18 -19 -20 20 26 -23 -24 -25 -26 -27 -28 -29 29 -31
leaf_value=0.0057480016879880936 0.00023985598950490618 -0.0051768478158737254 0.0093881299035768178 -0.017830336433865463 -0.0031710969828062179 -0.001308843285179373 -0.0051073167112833688 -0.012631787025746775 -0.0042482690933765572 -0.0015183342966972023 0.0032304676303182896 -0.00022366567174219288 0.011281528023212337 -0.0043198561827923502 0.0040370938619533701 0.0037887939874629863 -0.0019805507146703118 0.0037131444227026704 -0.0011330726856445229 0.010450847294442548 0.0030407141556170712 -0.0062149886085891429 0.0010759637285496892 -0.0058740104346640459 -0.010869433234812256 -0.0025308970293982315 0.0068817566449368428 -0.018407382475551841 -0.0057474500523622529 0.0060347869561712579
leaf_weight=321.82370764017105 732.42661665380001 356.64406886696815 2219.7805491089821 24.871416762471199 1320.1843948066235 298.97252734005451 1690.0784002095461 215.60559833049774 1139.1455604434013 814.35610923171043 467.25269612669945 1019.9200883805752 330.97972357273102 1865.0496150106192 615.04175333678722 290.98710696399212 220.52830526232719 1754.8008034527302 230.8217291533947 505.67642018198967 355.27570229768753 225.01946531236172 1160.5029390007257 1622.9389528334141 945.07892081141472 744.79160955548286 1136.7310658842325 25.286480501294136 62.669806152582169 586.63221454620361
leaf_count=588 1818 1114 3100 101 3732 749 5169 815 3394 2215 981 2503 431 5474 1314 596 614 3585 593 681 752 698 2733 5097 3471 2051 1935 102 180 1071
internal_value=0 -0.00231026 0.00562824 -0.000126917 0.00107105 0.00684067 -0.00486085 -0.00401519 -0.00287056 -0.0013988 0.00219487 0.00322733 0.00656877 -0.00303413 0.000872057 0.000786197 -0.008248 0.00226607 0.00507468 0.00555693 0.00678324 -0.000420663 0.000679273 -0.00666649 -0.00930979 -0.000755471 0.00556092 0.00161559 0.00294082 0.00489758
internal_weight=0 16520.4 6779.45 8901.01 6303.53 5421.85 7619.42 6097.17 4258.62 2568.54 4983.35 3572.95 798.232 2597.48 1429.4 1357.6 1522.25 2774.72 3202.07 2971.24 2022.97 1410.39 1185.37 1838.54 1301.72 1035.78 1517.29 380.562 948.275 649.302
internal_count=57657 45259 12398 22056 14764 9163 23203 18004 12092 6923 11032 7500 1412 7292 3529 3235 5199 6088 6063 5470 3470 3532 2834 5912 4585 2647 2789 854 2000 1251
is_linear=0
shrinkage=0.01


Tree=23
num_leaves=31
num_cat=0
split_feature=29 29 29 10 10 73 191 29 10 73 191 1 31 11 12 2 55 6 8 34 55 191 189 188 189 34 34 29 9 7
split_gain=2969.47 650.193 558.318 332.418 240.236 230.808 208.977 194.477 133.049 127.29 123.065 118.987 110.905 108.985 106.31 103.262 95.8986 93.8382 160.786 80.9343 78.7074 77.5316 98.3538 76.7883 74.9071 73.9966 73.0203 86.0086 75.804 72.8697
threshold=0.44260754072229885 0.6209161426047175 0.15848715761417079 -19776.499999999996 -19900.499999999996 1.0000000180025095e-35 0.097415959661337176 0.70547741029099975 -18049.499999999996 1.0000000180025095e-35 0.046592962638476322 1.0000000180025095e-35 0.57116562014542527 -4957.4999999999991 -1920.4999999999998 1.0000000180025095e-35 1.0000000180025095e-35 244791.00000000003 451660.50000000006 -1532.4999999999998 1.0000000180025095e-35 0.071703210418868013 69827.250000000015 0.55353074706468985 37227.375000000007 -1181.4999999999998 -413.49999999999994 0.30815139810548559 0.0081490000000000017 48350.250000000007
decision_type=2 2 2 2 2 2 2 2 2 2 2 2 2 2 2 2 2 2 2 2 2 2 2 2 2 2 2 2 2 2
left_child=2 4 8 -4 -2 10 7 11 -1 17 -6 15 14 -12 -13 16 -3 -5 20 24 -19 -9 -23 -11 -15 -20 -27 -28 -29 -10
right_child=1 6 3 9 5 -7 -8 21 29 23 13 12 -14 19 -16 -17 -18 18 25 -21 -22 22 -24 -25 -26 26 27 28 -30 -31
leaf_value=0.0042294570031471777 -0.004447096583000458 -0.011535258932279878 -0.001574975497694522 0.0017008496836082179 -0.0011832154228260383 -0.0036841001456896349 -0.011091237637121125 -0.0076423654409217244 0.010092357272538804 0.001997844982248274 -0.00022724710805564934 -0.0068025950383815903 0.00052566857391949263 -0.011470794888480166 -0.0021202904455705791 -0.0033894514105694581 0.0028739916698489595 -0.0011854136659671794 -0.00036853198168043324 0.0045894945937168738 0.0079030030125277501 -0.012210434962605859 0.0026545455964632576 -0.0057684452377895377 0.0012726400735079085 0.0069286214044546905 0.005269471151575048 -0.018634576912525659 -0.00065851037547468114 -0.0038063496904180601
leaf_weight=549.20788338780403 1440.2998596429825 49.822254717350006 1286.2675903141499 794.11126972734928 1563.8320847302675 1271.4239466637373 527.31123042106628 1917.9646752923727 1876.078641474247 728.22503359615803 1143.7789152562618 1602.2676158696413 368.26246412098408 53.63675756752491 695.33437159657478 856.91653946042061 633.2006234228611 100.4795646071434 435.07954436540604 1653.7470999360085 1844.2960461974144 61.323492348194122 162.34682366251945 154.28426924347878 329.42185698449612 590.50870576500893 323.31221386790276 26.335070535540581 214.77354767918587 38.496324837207794
leaf_count=1077 4321 182 3417 1767 4071 3696 1970 6481 2457 1616 2791 5180 911 185 1937 2447 1431 254 1048 3274 2946 232 395 471 753 1021 602 106 520 98
internal_value=0 -0.00282393 0.00451479 0.00297779 -0.000778638 9.96567e-05 -0.0050422 -0.00453967 0.00856828 0.00410149 0.00111364 -0.00329061 -0.00456899 0.00224296 -0.00538557 -0.00107756 0.00182293 0.00480714 0.00550499 0.00363012 0.00743344 -0.00699261 -0.00142097 0.000640107 -0.000511725 0.00314626 0.00447034 0.00189843 -0.00262194 0.0098129
internal_weight=0 14330.9 8961.46 6497.67 7456.14 6015.84 6874.75 6347.44 2463.78 5211.41 4744.42 4205.8 2665.86 3180.58 2297.6 1539.94 683.023 4328.9 3534.78 2036.81 1944.78 2141.63 223.67 882.509 383.059 1590.01 1154.93 564.421 241.109 1914.57
internal_count=57657 40257 17400 13768 19091 14770 21166 19196 3632 10351 11074 12088 8028 7003 7117 4060 1613 8264 6497 4212 3200 7108 627 2087 938 3297 2249 1228 626 2555
is_linear=0
shrinkage=0.01


Tree=24
num_leaves=31
num_cat=0
split_feature=29 29 10 10 73 29 29 10 10 2 29 34 191 191 191 1 68 7 1 31 36 5 10 5 22 36 32 9 7 191
split_gain=2915.23 885.99 382.447 309.965 291.02 234.019 205.225 142.498 132.336 108.36 100.199 94.8809 93.3179 92.8756 88.1684 88.0662 86.1738 96.0462 81.8328 78.8132 77.7984 112.546 77.6024 77.3165 76.9893 76.4265 106.509 74.9952 74.5829 72.6488
threshold=0.35642626641090697 0.61045692366503612 -19531.499999999996 -20012.499999999996 1.0000000180025095e-35 0.16769761344449371 0.70547741029099975 -14314.499999999998 -13034.499999999998 1.0000000180025095e-35 0.12405334710055056 -1143.4999999999998 0.092539102990033234 0.046592962638476322 0.049977272727272738 1.0000000180025095e-35 1.0000000180025095e-35 27567.000000000004 1.0000000180025095e-35 0.57116562014542527 1.0000000180025095e-35 206399.25000000003 -19592.499999999996 130581.00000000001 8.5000000000000018 1.0000000180025095e-35 3.5000000000000004 0.0081490000000000017 16458.750000000004 0.094943126684636128
decision_type=2 2 2 2 2 2 2 2 2 2 2 2 2 2 2 2 2 2 2 2 2 2 2 2 2 2 2 2 2 2
left_child=2 3 10 29 8 -4 7 15 11 -9 -1 -5 13 23 -15 28 17 27 -12 22 21 -10 -17 -7 -25 26 -16 -6 -3 -2
right_child=1 6 5 4 16 12 -8 9 20 -11 18 -13 -14 14 25 19 -18 -19 -20 -21 -22 -23 -24 24 -26 -27 -28 -29 -30 -31
leaf_value=0.005644939425691213 -0.0034162951312699942 -0.0088334623611168867 0.0092036736157510447 -0.0017200692022448195 0.0014009618848666793 -0.0013350016676180871 -0.0072790937133663941 0.0002265877360420449 0.0018236109178716717 -0.0046124857494896608 0.0037537700476992716 0.0017009068410876922 -0.0011457330447818981 0.010280434327337008 0.0029910671710889503 -0.0095035747058453083 -0.01046167212366866 7.2319281984237281e-05 -0.0024998966559181056 -0.0011981345213524764 0.0044542564138723732 -0.012415931965808825 -0.0052784456298422804 -0.0057269787163105271 0.0059343452096461127 0.0067579827302494504 -0.018266351839911987 -0.0070358891368237954 -0.0015106056448599937 -0.010658932825034849
leaf_weight=322.00955402851105 1500.57281011343 165.08296082913876 2219.6656987667084 1266.5336015224457 133.34007693827152 299.02975852787495 2338.3049823194742 1229.0427990406752 442.83971717953682 742.18785433471203 291.06100532412529 2252.7985233664513 230.844187900424 505.86297488212585 355.38246959447861 725.53771315515041 148.36654162406921 718.02518120408058 744.40717333555222 271.91739305853844 1883.7452871650457 63.459800779819489 1084.4568690955639 62.658622324466705 587.01031613349915 1137.29381275177 25.2446249127388 502.08030980825424 883.13953839242458 152.57730704545975
leaf_count=588 4344 562 3100 3281 321 749 7852 3078 1009 2205 596 5108 593 681 752 2577 523 1816 2051 721 3735 225 3373 180 1071 1935 102 1606 2383 540
internal_value=0 -0.00226843 0.00551991 -0.000169357 0.000704017 0.00670814 -0.00482591 -0.00370144 0.00170299 -0.00159537 0.000773022 0.00046977 0.00497893 0.00545457 0.00666482 -0.00502776 -0.00322678 -0.00243368 -0.000742046 -0.00621796 0.0035189 3.88204e-05 -0.00697209 0.00287285 0.00480965 0.00545987 0.00158119 -0.00526545 -0.00266387 -0.00408475
internal_weight=0 16504 6780.47 9064.34 7411.19 5422.99 7439.67 5101.37 5909.38 1971.23 1357.48 3519.33 3203.33 2972.48 2023.78 3130.13 1501.81 1353.45 1035.47 2081.91 2390.04 506.3 1809.99 948.699 649.669 1517.92 380.627 635.42 1048.22 1653.15
internal_count=57657 45259 12398 22508 17624 9163 22751 14899 13358 5283 3235 8389 6063 5470 3470 9616 4266 3743 2647 6671 4969 1234 5950 2000 1251 2789 854 1927 2945 4884
is_linear=0
shrinkage=0.01


Tree=25
num_leaves=31
num_cat=0
split_feature=29 29 10 10 73 29 10 73 191 6 191 191 191 1 8 29 31 7 191 7 188 191 55 191 191 1 19 191 68 10
split_gain=2857.54 869.824 374.751 294.152 283.829 229.865 211.605 181.013 137.323 162.261 128.971 112.223 122.443 106.859 105.173 98.1751 98.1251 97.3701 95.8275 95.3355 91.709 88.0236 85.5058 85.4351 82.7115 80.2078 77.7309 77.0102 75.9722 75.514
threshold=0.35642626641090697 0.6071368043962565 -19531.499999999996 -18049.499999999996 1.0000000180025095e-35 0.15848715761417079 -20263.499999999996 1.0000000180025095e-35 0.046621881188118823 339437.25000000006 0.044040033388981645 0.049977272727272738 0.048565925686292637 1.0000000180025095e-35 451660.50000000006 0.12405334710055056 0.57116562014542527 17718.750000000004 0.092539102990033234 28122.750000000004 0.094946099237501427 0.039653120420637213 1.0000000180025095e-35 0.026510406544802349 0.034842518442119975 1.0000000180025095e-35 1.5000000000000002 0.051227563419169418 1.0000000180025095e-35 -13250.499999999998
decision_type=2 2 2 2 2 2 2 2 2 2 2 2 2 2 2 2 2 2 2 2 2 2 2 2 2 2 2 2 2 2
left_child=2 3 15 13 10 -4 16 8 -8 -10 21 12 -12 -2 19 -1 24 -13 20 -11 -7 23 -9 -5 26 -17 -3 -16 -6 -20
right_child=1 6 5 4 28 18 7 22 9 14 11 17 -14 -15 27 25 -18 -19 29 -21 -22 -23 -24 -25 -26 -27 -28 -29 -30 -31
leaf_value=0.0055867789094682201 0.00027807401752647209 0.0010783401956914024 0.0092982464188123386 -0.017698889994510081 -0.0022829026684211859 -0.009226532038253259 -0.0049827636570648004 -0.012456532043866526 -0.0041279929358480167 -2.9240129132872853e-05 0.0031507287596216449 -0.00026414226342831571 0.011098247684043534 -0.0042316982105254589 0.0020568910874320416 0.0037151150526298117 -0.0019032191404993171 0.0036202787579883529 -0.0083492355098264779 0.0071047869492537078 0.0057171313806860594 -0.0061649622562595877 -0.0057389889185566912 0.0010523880045964094 -0.010677761999674065 -0.0024757976457979204 -0.008604638261654805 -0.0047737497442556578 -0.010270409784260224 0.0031609017941882705
leaf_weight=322.10765326023102 731.93793644011021 131.75991423428059 2033.8787620812654 24.817720949649811 1185.8803792744875 41.618980258703232 1685.8090750128031 214.61365246772766 1136.3501192927361 376.67113262414932 467.48369976878166 1020.2944802939892 331.1844137609005 1862.101413577795 283.73759087920189 291.14809712767601 220.17750664055347 1755.8740764856339 88.394902348518372 372.63265411555767 3099.0492749065161 224.81463947892189 1618.3101237118244 1160.769299030304 940.00673538446426 744.13801166415215 223.58476805686951 394.59453746676445 132.36995182931423 160.47919842600822
leaf_count=588 1818 341 2787 101 3266 137 5169 815 3394 959 981 2503 431 5474 678 596 614 3585 289 710 5605 698 5097 2733 3471 2051 773 1182 466 345
internal_value=0 -0.00224689 0.00546443 -0.000124863 0.00104154 0.00664053 -0.00473178 -0.00389879 -0.00276589 -0.0013083 0.00213271 0.00314301 0.00644633 -0.00295921 0.000936081 0.000765333 -0.00807507 0.00219268 0.00504579 0.00351855 0.0055191 -0.000427992 -0.00652553 0.00065987 -0.00912413 -0.00073476 -0.00501424 -0.00191658 -0.00308496 -0.000927259
internal_weight=0 16495.8 6780.81 8897.53 6303.49 5423.42 7598.25 6082.72 4249.8 2563.99 4985.24 3574.84 798.668 2594.04 1427.64 1357.39 1515.53 2776.17 3389.54 749.304 3140.67 1410.4 1832.92 1185.59 1295.35 1035.29 355.345 678.332 1318.25 248.874
internal_count=57657 45259 12398 22056 14764 9163 23203 18004 12092 6923 11032 7500 1412 7292 3529 3235 5199 6088 6376 1669 5742 3532 5912 2834 4585 2647 1114 1860 3732 634
is_linear=0
shrinkage=0.01


Tree=26
num_leaves=31
num_cat=0
split_feature=29 29 29 10 10 73 191 8 8 191 191 71 10 12 191 191 55 19 191 191 84 1 191 11 189 1 191 8 55 34
